<?xml version="1.0" encoding="UTF-8" standalone="yes"?>
<PMML xmlns="http://www.dmg.org/PMML-4_4" xmlns:data="http://jpmml.org/jpmml-model/InlineTable" version="4.4">
	<Header>
		<Application name="SkLearn2PMML package" version="0.95.1"/>
		<Timestamp>2023-11-03T10:10:39Z</Timestamp>
	</Header>
	<MiningBuildTask>
		<Extension name="repr">PMMLPipeline(steps=[('outlier_detector', IsolationForest(contamination=0.01, max_samples=100, n_jobs=-1,
                random_state=123))])</Extension>
	</MiningBuildTask>
	<DataDictionary>
		<DataField name="VATP009_N" optype="continuous" dataType="float"/>
		<DataField name="VATP016_N" optype="continuous" dataType="float"/>
		<DataField name="VATP017_N" optype="continuous" dataType="float"/>
	</DataDictionary>
	<MiningModel functionName="regression" algorithmName="sklearn.ensemble._iforest.IsolationForest">
		<MiningSchema>
			<MiningField name="VATP016_N"/>
			<MiningField name="VATP009_N"/>
			<MiningField name="VATP017_N"/>
		</MiningSchema>
		<Output>
			<OutputField name="rawAnomalyScore" optype="continuous" dataType="double" isFinalResult="false"/>
			<OutputField name="normalizedAnomalyScore" optype="continuous" dataType="double" feature="transformedValue" isFinalResult="false">
				<Apply function="/">
					<FieldRef field="rawAnomalyScore"/>
					<Constant dataType="double">8.364671030072245</Constant>
				</Apply>
			</OutputField>
			<OutputField name="decisionFunction" optype="continuous" dataType="double" feature="transformedValue">
				<Apply function="-">
					<Constant dataType="double">0.690700964408009</Constant>
					<Apply function="pow">
						<Constant dataType="double">2.0</Constant>
						<Apply function="*">
							<Constant dataType="double">-1.0</Constant>
							<FieldRef field="normalizedAnomalyScore"/>
						</Apply>
					</Apply>
				</Apply>
			</OutputField>
			<OutputField name="outlier" optype="categorical" dataType="boolean" feature="decision">
				<Decisions businessProblem="Is this sample an outlier?">
					<Decision value="true" description="Outlier"/>
					<Decision value="false" description="Not outlier"/>
				</Decisions>
				<Apply function="lessOrEqual">
					<FieldRef field="decisionFunction"/>
					<Constant dataType="double">0.0</Constant>
				</Apply>
			</OutputField>
			<OutputField name="predict(outlier)" optype="categorical" dataType="integer" feature="transformedValue">
				<Apply function="if">
					<FieldRef field="outlier"/>
					<Constant dataType="integer">-1</Constant>
					<Constant dataType="integer">1</Constant>
				</Apply>
				<Value value="-1"/>
				<Value value="1"/>
			</OutputField>
		</Output>
		<LocalTransformations>
			<DerivedField name="double(VATP016_N)" optype="continuous" dataType="double">
				<FieldRef field="VATP016_N"/>
			</DerivedField>
			<DerivedField name="double(VATP009_N)" optype="continuous" dataType="double">
				<FieldRef field="VATP009_N"/>
			</DerivedField>
			<DerivedField name="double(VATP017_N)" optype="continuous" dataType="double">
				<FieldRef field="VATP017_N"/>
			</DerivedField>
		</LocalTransformations>
		<Segmentation multipleModelMethod="average" missingPredictionTreatment="returnMissing">
			<Segment id="1">
				<True/>
				<TreeModel functionName="regression" missingValueStrategy="nullPrediction" noTrueChildStrategy="returnLastPrediction">
					<MiningSchema>
						<MiningField name="double(VATP016_N)"/>
						<MiningField name="double(VATP009_N)"/>
						<MiningField name="double(VATP017_N)"/>
					</MiningSchema>
					<Node score="3.0">
						<True/>
						<Node score="4.0">
							<SimplePredicate field="double(VATP016_N)" operator="lessOrEqual" value="0.26810691917482005"/>
							<Node score="5.0">
								<SimplePredicate field="double(VATP016_N)" operator="lessOrEqual" value="0.18843620804008337"/>
								<Node score="3.0">
									<SimplePredicate field="double(VATP016_N)" operator="lessOrEqual" value="0.11852968010781012"/>
								</Node>
								<Node score="5.0">
									<SimplePredicate field="double(VATP016_N)" operator="lessOrEqual" value="0.18159223680853315"/>
								</Node>
								<Node score="7.0">
									<SimplePredicate field="double(VATP009_N)" operator="lessOrEqual" value="0.14603672436094212"/>
									<Node score="7.0">
										<SimplePredicate field="double(VATP009_N)" operator="lessOrEqual" value="0.14457747263592077"/>
									</Node>
								</Node>
							</Node>
							<Node score="4.0">
								<SimplePredicate field="double(VATP009_N)" operator="lessOrEqual" value="0.19448868834754984"/>
								<Node score="5.0">
									<SimplePredicate field="double(VATP017_N)" operator="lessOrEqual" value="0.2972917586621409"/>
									<Node score="7.0">
										<SimplePredicate field="double(VATP017_N)" operator="lessOrEqual" value="0.036169987443191935"/>
										<Node score="7.0">
											<SimplePredicate field="double(VATP009_N)" operator="lessOrEqual" value="0.16336550391638124"/>
										</Node>
										<Node score="9.327020052042847">
											<SimplePredicate field="double(VATP017_N)" operator="lessOrEqual" value="0.007809267439877184"/>
										</Node>
									</Node>
								</Node>
							</Node>
							<Node score="5.0">
								<SimplePredicate field="double(VATP016_N)" operator="lessOrEqual" value="0.26282953220697197"/>
								<Node score="6.0">
									<SimplePredicate field="double(VATP017_N)" operator="lessOrEqual" value="0.080851717881338"/>
									<Node score="7.0">
										<SimplePredicate field="double(VATP017_N)" operator="lessOrEqual" value="0.0144319852332866"/>
										<Node score="8.851655907139286">
											<SimplePredicate field="double(VATP016_N)" operator="lessOrEqual" value="0.2599732143038014"/>
										</Node>
									</Node>
								</Node>
							</Node>
						</Node>
						<Node score="4.0">
							<SimplePredicate field="double(VATP016_N)" operator="lessOrEqual" value="0.3855948219932093"/>
							<Node score="3.0">
								<SimplePredicate field="double(VATP016_N)" operator="lessOrEqual" value="0.26992575803563923"/>
							</Node>
							<Node score="10.748880484475505">
								<SimplePredicate field="double(VATP017_N)" operator="lessOrEqual" value="0.24177487128557804"/>
								<Node score="7.0">
									<SimplePredicate field="double(VATP009_N)" operator="lessOrEqual" value="0.24594527393593335"/>
									<Node score="7.0">
										<SimplePredicate field="double(VATP016_N)" operator="lessOrEqual" value="0.2733648341301188"/>
									</Node>
									<Node score="10.53553663538496">
										<SimplePredicate field="double(VATP017_N)" operator="lessOrEqual" value="0.19492678346915418"/>
									</Node>
								</Node>
								<Node score="6.0">
									<SimplePredicate field="double(VATP016_N)" operator="lessOrEqual" value="0.3184601619683373"/>
								</Node>
								<Node score="11.931969129026609">
									<SimplePredicate field="double(VATP017_N)" operator="lessOrEqual" value="0.10557210678926067"/>
								</Node>
							</Node>
						</Node>
						<Node score="4.0">
							<SimplePredicate field="double(VATP017_N)" operator="lessOrEqual" value="0.2505407652969518"/>
							<Node score="6.0">
								<SimplePredicate field="double(VATP017_N)" operator="lessOrEqual" value="0.24631479243682972"/>
								<Node score="9.327020052042847">
									<SimplePredicate field="double(VATP016_N)" operator="lessOrEqual" value="0.4794194577892371"/>
									<Node score="9.327020052042847">
										<SimplePredicate field="double(VATP009_N)" operator="lessOrEqual" value="0.32527566179087586"/>
										<Node score="7.0">
											<SimplePredicate field="double(VATP016_N)" operator="lessOrEqual" value="0.39171751458905185"/>
										</Node>
									</Node>
									<Node score="10.748880484475505">
										<SimplePredicate field="double(VATP016_N)" operator="lessOrEqual" value="0.4482817212624923"/>
									</Node>
								</Node>
								<Node score="8.851655907139286">
									<SimplePredicate field="double(VATP009_N)" operator="lessOrEqual" value="0.4409016623720988"/>
									<Node score="8.207392357589622">
										<SimplePredicate field="double(VATP016_N)" operator="lessOrEqual" value="0.5170209738231127"/>
									</Node>
								</Node>
							</Node>
						</Node>
					</Node>
				</TreeModel>
			</Segment>
			<Segment id="2">
				<True/>
				<TreeModel functionName="regression" missingValueStrategy="nullPrediction" noTrueChildStrategy="returnLastPrediction">
					<MiningSchema>
						<MiningField name="double(VATP016_N)"/>
						<MiningField name="double(VATP009_N)"/>
						<MiningField name="double(VATP017_N)"/>
					</MiningSchema>
					<Node score="2.0">
						<True/>
						<Node score="3.0">
							<SimplePredicate field="double(VATP016_N)" operator="lessOrEqual" value="0.485604390332487"/>
							<Node score="5.0">
								<SimplePredicate field="double(VATP009_N)" operator="lessOrEqual" value="0.37670350468873"/>
								<Node score="6.0">
									<SimplePredicate field="double(VATP017_N)" operator="lessOrEqual" value="0.20390458945905846"/>
									<Node score="7.0">
										<SimplePredicate field="double(VATP009_N)" operator="lessOrEqual" value="0.29951453305146114"/>
										<Node score="10.296251627913692">
											<SimplePredicate field="double(VATP017_N)" operator="lessOrEqual" value="0.03260678227813746"/>
											<Node score="6.0">
												<SimplePredicate field="double(VATP009_N)" operator="lessOrEqual" value="0.07956877492667269"/>
											</Node>
											<Node score="12.669106056462542">
												<SimplePredicate field="double(VATP017_N)" operator="lessOrEqual" value="0.001269701040909383"/>
											</Node>
										</Node>
										<Node score="8.851655907139286">
											<SimplePredicate field="double(VATP017_N)" operator="lessOrEqual" value="0.10820545092777038"/>
											<Node score="10.023664553973461">
												<SimplePredicate field="double(VATP017_N)" operator="lessOrEqual" value="0.07926985539555026"/>
											</Node>
										</Node>
										<Node score="10.023664553973461">
											<SimplePredicate field="double(VATP009_N)" operator="lessOrEqual" value="0.27405736236609546"/>
										</Node>
									</Node>
									<Node score="6.0">
										<SimplePredicate field="double(VATP017_N)" operator="lessOrEqual" value="0.1477345707240795"/>
										<Node score="11.27809078322522">
											<SimplePredicate field="double(VATP017_N)" operator="lessOrEqual" value="0.09997880951271676"/>
											<Node score="8.0">
												<SimplePredicate field="double(VATP009_N)" operator="lessOrEqual" value="0.30373951891020834"/>
											</Node>
										</Node>
									</Node>
								</Node>
								<Node score="6.0">
									<SimplePredicate field="double(VATP017_N)" operator="lessOrEqual" value="0.26009465038833074"/>
									<Node score="7.0">
										<SimplePredicate field="double(VATP017_N)" operator="lessOrEqual" value="0.21788427645693983"/>
										<Node score="7.0">
											<SimplePredicate field="double(VATP017_N)" operator="lessOrEqual" value="0.20964282956683591"/>
										</Node>
									</Node>
									<Node score="8.0">
										<SimplePredicate field="double(VATP009_N)" operator="lessOrEqual" value="0.35656784278864934"/>
										<Node score="8.0">
											<SimplePredicate field="double(VATP009_N)" operator="lessOrEqual" value="0.18177526498757718"/>
										</Node>
									</Node>
								</Node>
								<Node score="6.0">
									<SimplePredicate field="double(VATP017_N)" operator="lessOrEqual" value="0.27649498577657966"/>
								</Node>
							</Node>
						</Node>
						<Node score="5.0">
							<SimplePredicate field="double(VATP016_N)" operator="lessOrEqual" value="0.7186968262711337"/>
							<Node score="5.0">
								<SimplePredicate field="double(VATP016_N)" operator="lessOrEqual" value="0.5360115821986688"/>
								<Node score="5.0">
									<SimplePredicate field="double(VATP017_N)" operator="lessOrEqual" value="0.02400290178652188"/>
									<Node score="7.0">
										<SimplePredicate field="double(VATP009_N)" operator="lessOrEqual" value="0.40793285530459505"/>
										<Node score="7.0">
											<SimplePredicate field="double(VATP009_N)" operator="lessOrEqual" value="0.3983155315279394"/>
										</Node>
									</Node>
								</Node>
							</Node>
							<Node score="5.0">
								<SimplePredicate field="double(VATP017_N)" operator="lessOrEqual" value="0.17658492386168181"/>
								<Node score="7.0">
									<SimplePredicate field="double(VATP016_N)" operator="lessOrEqual" value="0.6608451477008461"/>
									<Node score="6.0">
										<SimplePredicate field="double(VATP016_N)" operator="lessOrEqual" value="0.5648607531674743"/>
									</Node>
								</Node>
							</Node>
						</Node>
					</Node>
				</TreeModel>
			</Segment>
			<Segment id="3">
				<True/>
				<TreeModel functionName="regression" missingValueStrategy="nullPrediction" noTrueChildStrategy="returnLastPrediction">
					<MiningSchema>
						<MiningField name="double(VATP016_N)"/>
						<MiningField name="double(VATP009_N)"/>
						<MiningField name="double(VATP017_N)"/>
					</MiningSchema>
					<Node score="4.0">
						<True/>
						<Node score="3.0">
							<SimplePredicate field="double(VATP016_N)" operator="lessOrEqual" value="0.24329497728608884"/>
							<Node score="5.0">
								<SimplePredicate field="double(VATP009_N)" operator="lessOrEqual" value="0.17920324616791566"/>
								<Node score="4.0">
									<SimplePredicate field="double(VATP009_N)" operator="lessOrEqual" value="0.12324021127092968"/>
								</Node>
								<Node score="7.0">
									<SimplePredicate field="double(VATP016_N)" operator="lessOrEqual" value="0.18897097743677313"/>
									<Node score="6.0">
										<SimplePredicate field="double(VATP009_N)" operator="lessOrEqual" value="0.13532482749260225"/>
									</Node>
									<Node score="6.0">
										<SimplePredicate field="double(VATP016_N)" operator="lessOrEqual" value="0.17577509139286995"/>
									</Node>
									<Node score="8.0">
										<SimplePredicate field="double(VATP016_N)" operator="lessOrEqual" value="0.18637517725091615"/>
									</Node>
								</Node>
								<Node score="8.0">
									<SimplePredicate field="double(VATP017_N)" operator="lessOrEqual" value="0.022785315235407288"/>
									<Node score="6.0">
										<SimplePredicate field="double(VATP009_N)" operator="lessOrEqual" value="0.1651760114010543"/>
									</Node>
									<Node score="7.0">
										<SimplePredicate field="double(VATP016_N)" operator="lessOrEqual" value="0.21915096286938154"/>
									</Node>
								</Node>
							</Node>
							<Node score="4.0">
								<SimplePredicate field="double(VATP009_N)" operator="lessOrEqual" value="0.18686498180621974"/>
								<Node score="5.0">
									<SimplePredicate field="double(VATP017_N)" operator="lessOrEqual" value="0.03565234643382609"/>
									<Node score="6.0">
										<SimplePredicate field="double(VATP017_N)" operator="lessOrEqual" value="0.008500704955973977"/>
									</Node>
								</Node>
							</Node>
						</Node>
						<Node score="4.0">
							<SimplePredicate field="double(VATP009_N)" operator="lessOrEqual" value="0.1979756563361225"/>
							<Node score="4.0">
								<SimplePredicate field="double(VATP017_N)" operator="lessOrEqual" value="0.04625762483529188"/>
							</Node>
						</Node>
						<Node score="8.207392357589622">
							<SimplePredicate field="double(VATP016_N)" operator="lessOrEqual" value="0.4927696885646972"/>
							<Node score="8.851655907139286">
								<SimplePredicate field="double(VATP009_N)" operator="lessOrEqual" value="0.25081382728497964"/>
								<Node score="6.0">
									<SimplePredicate field="double(VATP009_N)" operator="lessOrEqual" value="0.20677155449210327"/>
								</Node>
								<Node score="7.0">
									<SimplePredicate field="double(VATP009_N)" operator="lessOrEqual" value="0.21962199182002717"/>
									<Node score="8.851655907139286">
										<SimplePredicate field="double(VATP016_N)" operator="lessOrEqual" value="0.27359237889530896"/>
									</Node>
								</Node>
								<Node score="10.53553663538496">
									<SimplePredicate field="double(VATP009_N)" operator="lessOrEqual" value="0.24270119030128653"/>
								</Node>
							</Node>
							<Node score="6.0">
								<SimplePredicate field="double(VATP016_N)" operator="lessOrEqual" value="0.3471643734942927"/>
								<Node score="8.207392357589622">
									<SimplePredicate field="double(VATP017_N)" operator="lessOrEqual" value="0.061197228950766826"/>
									<Node score="10.53553663538496">
										<SimplePredicate field="double(VATP009_N)" operator="lessOrEqual" value="0.2715413448933504"/>
									</Node>
								</Node>
							</Node>
							<Node score="10.748880484475505">
								<SimplePredicate field="double(VATP009_N)" operator="lessOrEqual" value="0.3146125943678034"/>
								<Node score="9.706640488004599">
									<SimplePredicate field="double(VATP009_N)" operator="lessOrEqual" value="0.2934107827065383"/>
								</Node>
							</Node>
							<Node score="12.04043800349013">
								<SimplePredicate field="double(VATP017_N)" operator="lessOrEqual" value="0.21344398221398894"/>
							</Node>
						</Node>
						<Node score="6.0">
							<SimplePredicate field="double(VATP009_N)" operator="lessOrEqual" value="0.45356267093374936"/>
							<Node score="5.0">
								<SimplePredicate field="double(VATP009_N)" operator="lessOrEqual" value="0.4003465423368254"/>
							</Node>
							<Node score="7.0">
								<SimplePredicate field="double(VATP017_N)" operator="lessOrEqual" value="0.17683597156402883"/>
								<Node score="8.207392357589622">
									<SimplePredicate field="double(VATP016_N)" operator="lessOrEqual" value="0.5277897916962332"/>
								</Node>
							</Node>
						</Node>
					</Node>
				</TreeModel>
			</Segment>
			<Segment id="4">
				<True/>
				<TreeModel functionName="regression" missingValueStrategy="nullPrediction" noTrueChildStrategy="returnLastPrediction">
					<MiningSchema>
						<MiningField name="double(VATP016_N)"/>
						<MiningField name="double(VATP009_N)"/>
						<MiningField name="double(VATP017_N)"/>
					</MiningSchema>
					<Node score="2.0">
						<True/>
						<Node score="6.0">
							<SimplePredicate field="double(VATP009_N)" operator="lessOrEqual" value="0.4568466605169952"/>
							<Node score="2.0">
								<SimplePredicate field="double(VATP009_N)" operator="lessOrEqual" value="0.1361001180258281"/>
							</Node>
							<Node score="6.0">
								<SimplePredicate field="double(VATP009_N)" operator="lessOrEqual" value="0.17900094234309655"/>
								<Node score="6.0">
									<SimplePredicate field="double(VATP017_N)" operator="lessOrEqual" value="0.03358688362790674"/>
									<Node score="6.0">
										<SimplePredicate field="double(VATP016_N)" operator="lessOrEqual" value="0.2012378244684178"/>
									</Node>
									<Node score="7.0">
										<SimplePredicate field="double(VATP009_N)" operator="lessOrEqual" value="0.16261922381451865"/>
									</Node>
								</Node>
								<Node score="5.0">
									<SimplePredicate field="double(VATP009_N)" operator="lessOrEqual" value="0.1479492298203024"/>
								</Node>
								<Node score="8.0">
									<SimplePredicate field="double(VATP016_N)" operator="lessOrEqual" value="0.2102099803809142"/>
									<Node score="7.0">
										<SimplePredicate field="double(VATP009_N)" operator="lessOrEqual" value="0.15967866920466478"/>
									</Node>
								</Node>
							</Node>
							<Node score="10.296251627913692">
								<SimplePredicate field="double(VATP016_N)" operator="lessOrEqual" value="0.5206297191301046"/>
								<Node score="8.207392357589622">
									<SimplePredicate field="double(VATP017_N)" operator="lessOrEqual" value="0.08876460812451206"/>
									<Node score="10.941419697609339">
										<SimplePredicate field="double(VATP009_N)" operator="lessOrEqual" value="0.3495430347129834"/>
										<Node score="13.722286106644736">
											<SimplePredicate field="double(VATP017_N)" operator="lessOrEqual" value="0.021842817421362837"/>
										</Node>
									</Node>
									<Node score="8.851655907139286">
										<SimplePredicate field="double(VATP009_N)" operator="lessOrEqual" value="0.38703726699989494"/>
									</Node>
								</Node>
								<Node score="7.0">
									<SimplePredicate field="double(VATP016_N)" operator="lessOrEqual" value="0.29693519683746905"/>
									<Node score="8.851655907139286">
										<SimplePredicate field="double(VATP017_N)" operator="lessOrEqual" value="0.37128399851866756"/>
									</Node>
								</Node>
								<Node score="10.53553663538496">
									<SimplePredicate field="double(VATP017_N)" operator="lessOrEqual" value="0.22341528854162557"/>
								</Node>
							</Node>
							<Node score="5.0">
								<SimplePredicate field="double(VATP009_N)" operator="lessOrEqual" value="0.4414074955424359"/>
							</Node>
						</Node>
					</Node>
				</TreeModel>
			</Segment>
			<Segment id="5">
				<True/>
				<TreeModel functionName="regression" missingValueStrategy="nullPrediction" noTrueChildStrategy="returnLastPrediction">
					<MiningSchema>
						<MiningField name="double(VATP016_N)"/>
						<MiningField name="double(VATP009_N)"/>
						<MiningField name="double(VATP017_N)"/>
					</MiningSchema>
					<Node score="3.0">
						<True/>
						<Node score="3.0">
							<SimplePredicate field="double(VATP016_N)" operator="lessOrEqual" value="0.22373293896157048"/>
							<Node score="3.0">
								<SimplePredicate field="double(VATP016_N)" operator="lessOrEqual" value="0.19167181632451913"/>
								<Node score="4.0">
									<SimplePredicate field="double(VATP017_N)" operator="lessOrEqual" value="0.2571537486338711"/>
									<Node score="6.0">
										<SimplePredicate field="double(VATP017_N)" operator="lessOrEqual" value="0.11581339890536846"/>
										<Node score="5.0">
											<SimplePredicate field="double(VATP009_N)" operator="lessOrEqual" value="0.11164118897953478"/>
										</Node>
										<Node score="7.0">
											<SimplePredicate field="double(VATP017_N)" operator="lessOrEqual" value="0.04278170350212546"/>
										</Node>
									</Node>
								</Node>
							</Node>
							<Node score="5.0">
								<SimplePredicate field="double(VATP016_N)" operator="lessOrEqual" value="0.2186699516798545"/>
								<Node score="5.0">
									<SimplePredicate field="double(VATP009_N)" operator="lessOrEqual" value="0.16517962407814807"/>
									<Node score="6.0">
										<SimplePredicate field="double(VATP017_N)" operator="lessOrEqual" value="0.27769067446116913"/>
									</Node>
								</Node>
							</Node>
						</Node>
						<Node score="4.0">
							<SimplePredicate field="double(VATP016_N)" operator="lessOrEqual" value="0.4632967137040934"/>
							<Node score="8.207392357589622">
								<SimplePredicate field="double(VATP017_N)" operator="lessOrEqual" value="0.23382519777052674"/>
								<Node score="11.116888542066473">
									<SimplePredicate field="double(VATP016_N)" operator="lessOrEqual" value="0.34721780460833646"/>
									<Node score="7.0">
										<SimplePredicate field="double(VATP017_N)" operator="lessOrEqual" value="0.02394309658780172"/>
										<Node score="12.669106056462542">
											<SimplePredicate field="double(VATP016_N)" operator="lessOrEqual" value="0.3459973035982816"/>
											<Node score="8.0">
												<SimplePredicate field="double(VATP016_N)" operator="lessOrEqual" value="0.24692135704242701"/>
											</Node>
										</Node>
									</Node>
									<Node score="7.0">
										<SimplePredicate field="double(VATP009_N)" operator="lessOrEqual" value="0.18817233312496875"/>
									</Node>
									<Node score="7.0">
										<SimplePredicate field="double(VATP009_N)" operator="lessOrEqual" value="0.20984163754975727"/>
									</Node>
								</Node>
								<Node score="7.0">
									<SimplePredicate field="double(VATP016_N)" operator="lessOrEqual" value="0.370694983059647"/>
									<Node score="7.0">
										<SimplePredicate field="double(VATP017_N)" operator="lessOrEqual" value="0.05581850264156496"/>
										<Node score="8.851655907139286">
											<SimplePredicate field="double(VATP009_N)" operator="lessOrEqual" value="0.2841383397138468"/>
										</Node>
									</Node>
								</Node>
								<Node score="10.53553663538496">
									<SimplePredicate field="double(VATP017_N)" operator="lessOrEqual" value="0.08755917141409872"/>
									<Node score="10.53553663538496">
										<SimplePredicate field="double(VATP009_N)" operator="lessOrEqual" value="0.3148624099632759"/>
									</Node>
								</Node>
								<Node score="8.0">
									<SimplePredicate field="double(VATP017_N)" operator="lessOrEqual" value="0.1772554996353125"/>
								</Node>
							</Node>
							<Node score="5.0">
								<SimplePredicate field="double(VATP017_N)" operator="lessOrEqual" value="0.3039429936284798"/>
							</Node>
						</Node>
						<Node score="4.0">
							<SimplePredicate field="double(VATP009_N)" operator="lessOrEqual" value="0.5027182391090796"/>
							<Node score="6.0">
								<SimplePredicate field="double(VATP017_N)" operator="lessOrEqual" value="0.25692460002798734"/>
								<Node score="7.0">
									<SimplePredicate field="double(VATP009_N)" operator="lessOrEqual" value="0.3732196116899414"/>
									<Node score="6.0">
										<SimplePredicate field="double(VATP016_N)" operator="lessOrEqual" value="0.46427176111655444"/>
									</Node>
								</Node>
								<Node score="7.0">
									<SimplePredicate field="double(VATP009_N)" operator="lessOrEqual" value="0.42817285660205495"/>
									<Node score="8.207392357589622">
										<SimplePredicate field="double(VATP017_N)" operator="lessOrEqual" value="0.13523693767158523"/>
									</Node>
								</Node>
							</Node>
						</Node>
					</Node>
				</TreeModel>
			</Segment>
			<Segment id="6">
				<True/>
				<TreeModel functionName="regression" missingValueStrategy="nullPrediction" noTrueChildStrategy="returnLastPrediction">
					<MiningSchema>
						<MiningField name="double(VATP016_N)"/>
						<MiningField name="double(VATP009_N)"/>
						<MiningField name="double(VATP017_N)"/>
					</MiningSchema>
					<Node score="3.0">
						<True/>
						<Node score="7.0">
							<SimplePredicate field="double(VATP016_N)" operator="lessOrEqual" value="0.30080959808987634"/>
							<Node score="6.0">
								<SimplePredicate field="double(VATP016_N)" operator="lessOrEqual" value="0.23373136836581904"/>
								<Node score="6.0">
									<SimplePredicate field="double(VATP017_N)" operator="lessOrEqual" value="0.12943390612778774"/>
									<Node score="6.0">
										<SimplePredicate field="double(VATP009_N)" operator="lessOrEqual" value="0.13074915291509626"/>
										<Node score="5.0">
											<SimplePredicate field="double(VATP009_N)" operator="lessOrEqual" value="0.09701290582741924"/>
										</Node>
									</Node>
									<Node score="5.0">
										<SimplePredicate field="double(VATP009_N)" operator="lessOrEqual" value="0.13740794931581235"/>
									</Node>
									<Node score="8.207392357589622">
										<SimplePredicate field="double(VATP017_N)" operator="lessOrEqual" value="0.02834714278470955"/>
										<Node score="8.851655907139286">
											<SimplePredicate field="double(VATP009_N)" operator="lessOrEqual" value="0.16027737176337375"/>
										</Node>
									</Node>
								</Node>
								<Node score="5.0">
									<SimplePredicate field="double(VATP016_N)" operator="lessOrEqual" value="0.17447257034360986"/>
								</Node>
								<Node score="5.0">
									<SimplePredicate field="double(VATP017_N)" operator="lessOrEqual" value="0.17055219392056403"/>
								</Node>
							</Node>
							<Node score="6.0">
								<SimplePredicate field="double(VATP009_N)" operator="lessOrEqual" value="0.19746161087694697"/>
								<Node score="5.0">
									<SimplePredicate field="double(VATP009_N)" operator="lessOrEqual" value="0.18688283341523487"/>
								</Node>
								<Node score="5.0">
									<SimplePredicate field="double(VATP016_N)" operator="lessOrEqual" value="0.24051671026032936"/>
								</Node>
								<Node score="8.0">
									<SimplePredicate field="double(VATP017_N)" operator="lessOrEqual" value="0.07684760344197299"/>
									<Node score="8.207392357589622">
										<SimplePredicate field="double(VATP016_N)" operator="lessOrEqual" value="0.24403368489822372"/>
									</Node>
								</Node>
							</Node>
							<Node score="5.0">
								<SimplePredicate field="double(VATP009_N)" operator="lessOrEqual" value="0.20224288624015643"/>
								<Node score="7.0">
									<SimplePredicate field="double(VATP016_N)" operator="lessOrEqual" value="0.2559612673928031"/>
									<Node score="6.0">
										<SimplePredicate field="double(VATP009_N)" operator="lessOrEqual" value="0.19937394643543402"/>
									</Node>
								</Node>
							</Node>
							<Node score="6.0">
								<SimplePredicate field="double(VATP016_N)" operator="lessOrEqual" value="0.27154143893115673"/>
								<Node score="8.0">
									<SimplePredicate field="double(VATP017_N)" operator="lessOrEqual" value="0.034557904687248495"/>
									<Node score="7.0">
										<SimplePredicate field="double(VATP009_N)" operator="lessOrEqual" value="0.20628986052577777"/>
									</Node>
								</Node>
							</Node>
							<Node score="6.0">
								<SimplePredicate field="double(VATP009_N)" operator="lessOrEqual" value="0.23291624200736116"/>
							</Node>
						</Node>
						<Node score="6.0">
							<SimplePredicate field="double(VATP016_N)" operator="lessOrEqual" value="0.5377726898255466"/>
							<Node score="4.0">
								<SimplePredicate field="double(VATP016_N)" operator="lessOrEqual" value="0.4299945909458196"/>
								<Node score="7.0">
									<SimplePredicate field="double(VATP017_N)" operator="lessOrEqual" value="0.3373589128648721"/>
									<Node score="9.327020052042847">
										<SimplePredicate field="double(VATP016_N)" operator="lessOrEqual" value="0.3702315580231341"/>
										<Node score="8.0">
											<SimplePredicate field="double(VATP016_N)" operator="lessOrEqual" value="0.35486637314812813"/>
											<Node score="10.941419697609339">
												<SimplePredicate field="double(VATP009_N)" operator="lessOrEqual" value="0.27029284718226676"/>
											</Node>
										</Node>
										<Node score="8.851655907139286">
											<SimplePredicate field="double(VATP016_N)" operator="lessOrEqual" value="0.35790902978807126"/>
										</Node>
									</Node>
									<Node score="8.207392357589622">
										<SimplePredicate field="double(VATP009_N)" operator="lessOrEqual" value="0.32735227020839763"/>
										<Node score="10.53553663538496">
											<SimplePredicate field="double(VATP017_N)" operator="lessOrEqual" value="0.12052837255649367"/>
										</Node>
									</Node>
									<Node score="8.0">
										<SimplePredicate field="double(VATP016_N)" operator="lessOrEqual" value="0.4226208835149358"/>
									</Node>
								</Node>
							</Node>
							<Node score="5.0">
								<SimplePredicate field="double(VATP017_N)" operator="lessOrEqual" value="0.10899431840079057"/>
								<Node score="8.207392357589622">
									<SimplePredicate field="double(VATP009_N)" operator="lessOrEqual" value="0.3931778857006115"/>
									<Node score="7.0">
										<SimplePredicate field="double(VATP016_N)" operator="lessOrEqual" value="0.44898092725628774"/>
										<Node score="8.207392357589622">
											<SimplePredicate field="double(VATP016_N)" operator="lessOrEqual" value="0.4413759606077196"/>
										</Node>
									</Node>
									<Node score="8.851655907139286">
										<SimplePredicate field="double(VATP009_N)" operator="lessOrEqual" value="0.36919622820823883"/>
									</Node>
								</Node>
							</Node>
							<Node score="5.0">
								<SimplePredicate field="double(VATP009_N)" operator="lessOrEqual" value="0.34838741835024695"/>
							</Node>
							<Node score="7.0">
								<SimplePredicate field="double(VATP017_N)" operator="lessOrEqual" value="0.29759698788238176"/>
								<Node score="8.207392357589622">
									<SimplePredicate field="double(VATP017_N)" operator="lessOrEqual" value="0.22892383717634188"/>
								</Node>
							</Node>
						</Node>
						<Node score="6.0">
							<SimplePredicate field="double(VATP009_N)" operator="lessOrEqual" value="0.5097211725879401"/>
							<Node score="6.0">
								<SimplePredicate field="double(VATP017_N)" operator="lessOrEqual" value="0.22521573689536029"/>
								<Node score="5.0">
									<SimplePredicate field="double(VATP016_N)" operator="lessOrEqual" value="0.55740454194304"/>
								</Node>
							</Node>
							<Node score="5.0">
								<SimplePredicate field="double(VATP009_N)" operator="lessOrEqual" value="0.4894016228905809"/>
							</Node>
						</Node>
					</Node>
				</TreeModel>
			</Segment>
			<Segment id="7">
				<True/>
				<TreeModel functionName="regression" missingValueStrategy="nullPrediction" noTrueChildStrategy="returnLastPrediction">
					<MiningSchema>
						<MiningField name="double(VATP016_N)"/>
						<MiningField name="double(VATP009_N)"/>
						<MiningField name="double(VATP017_N)"/>
					</MiningSchema>
					<Node score="3.0">
						<True/>
						<Node score="4.0">
							<SimplePredicate field="double(VATP016_N)" operator="lessOrEqual" value="0.468955756129723"/>
							<Node score="6.0">
								<SimplePredicate field="double(VATP017_N)" operator="lessOrEqual" value="0.17345729126447745"/>
								<Node score="5.0">
									<SimplePredicate field="double(VATP009_N)" operator="lessOrEqual" value="0.30601285061094774"/>
									<Node score="7.0">
										<SimplePredicate field="double(VATP016_N)" operator="lessOrEqual" value="0.3775777518682483"/>
										<Node score="8.0">
											<SimplePredicate field="double(VATP009_N)" operator="lessOrEqual" value="0.20357767009852024"/>
											<Node score="7.0">
												<SimplePredicate field="double(VATP009_N)" operator="lessOrEqual" value="0.1639088416618621"/>
												<Node score="8.851655907139286">
													<SimplePredicate field="double(VATP017_N)" operator="lessOrEqual" value="0.011990247291100596"/>
												</Node>
											</Node>
											<Node score="10.023664553973461">
												<SimplePredicate field="double(VATP017_N)" operator="lessOrEqual" value="0.05823065566682004"/>
											</Node>
										</Node>
										<Node score="9.706640488004599">
											<SimplePredicate field="double(VATP017_N)" operator="lessOrEqual" value="0.1250420043386997"/>
											<Node score="13.37552326076934">
												<SimplePredicate field="double(VATP016_N)" operator="lessOrEqual" value="0.36625587163192114"/>
											</Node>
										</Node>
										<Node score="8.0">
											<SimplePredicate field="double(VATP016_N)" operator="lessOrEqual" value="0.33179532285882346"/>
										</Node>
									</Node>
									<Node score="6.0">
										<SimplePredicate field="double(VATP016_N)" operator="lessOrEqual" value="0.3849817503746207"/>
									</Node>
								</Node>
								<Node score="7.0">
									<SimplePredicate field="double(VATP009_N)" operator="lessOrEqual" value="0.334267970844444"/>
									<Node score="6.0">
										<SimplePredicate field="double(VATP009_N)" operator="lessOrEqual" value="0.31385999541459786"/>
									</Node>
									<Node score="7.0">
										<SimplePredicate field="double(VATP017_N)" operator="lessOrEqual" value="0.05404985008616677"/>
									</Node>
								</Node>
								<Node score="7.0">
									<SimplePredicate field="double(VATP016_N)" operator="lessOrEqual" value="0.4315677017091841"/>
									<Node score="6.0">
										<SimplePredicate field="double(VATP017_N)" operator="lessOrEqual" value="0.023594994201253057"/>
									</Node>
								</Node>
								<Node score="8.0">
									<SimplePredicate field="double(VATP009_N)" operator="lessOrEqual" value="0.3632651259213048"/>
									<Node score="7.0">
										<SimplePredicate field="double(VATP016_N)" operator="lessOrEqual" value="0.4529448573801793"/>
									</Node>
								</Node>
							</Node>
							<Node score="6.0">
								<SimplePredicate field="double(VATP009_N)" operator="lessOrEqual" value="0.29719462888152515"/>
								<Node score="6.0">
									<SimplePredicate field="double(VATP016_N)" operator="lessOrEqual" value="0.29578391789128833"/>
									<Node score="6.0">
										<SimplePredicate field="double(VATP009_N)" operator="lessOrEqual" value="0.16593622375050132"/>
										<Node score="7.0">
											<SimplePredicate field="double(VATP017_N)" operator="lessOrEqual" value="0.387199066675617"/>
										</Node>
									</Node>
									<Node score="7.0">
										<SimplePredicate field="double(VATP009_N)" operator="lessOrEqual" value="0.1888992893454502"/>
									</Node>
								</Node>
								<Node score="5.0">
									<SimplePredicate field="double(VATP016_N)" operator="lessOrEqual" value="0.35759623448092165"/>
								</Node>
							</Node>
						</Node>
						<Node score="6.0">
							<SimplePredicate field="double(VATP016_N)" operator="lessOrEqual" value="0.5395825665041714"/>
							<Node score="5.0">
								<SimplePredicate field="double(VATP017_N)" operator="lessOrEqual" value="0.02143294590656875"/>
								<Node score="4.0">
									<SimplePredicate field="double(VATP016_N)" operator="lessOrEqual" value="0.473011746141449"/>
								</Node>
								<Node score="6.0">
									<SimplePredicate field="double(VATP016_N)" operator="lessOrEqual" value="0.4833915775422733"/>
									<Node score="8.0">
										<SimplePredicate field="double(VATP009_N)" operator="lessOrEqual" value="0.37746426633971414"/>
										<Node score="7.0">
											<SimplePredicate field="double(VATP016_N)" operator="lessOrEqual" value="0.47732471199332954"/>
										</Node>
									</Node>
								</Node>
							</Node>
							<Node score="4.0">
								<SimplePredicate field="double(VATP017_N)" operator="lessOrEqual" value="0.0891903629649706"/>
							</Node>
							<Node score="6.0">
								<SimplePredicate field="double(VATP017_N)" operator="lessOrEqual" value="0.21864375019615295"/>
							</Node>
						</Node>
					</Node>
				</TreeModel>
			</Segment>
			<Segment id="8">
				<True/>
				<TreeModel functionName="regression" missingValueStrategy="nullPrediction" noTrueChildStrategy="returnLastPrediction">
					<MiningSchema>
						<MiningField name="double(VATP016_N)"/>
						<MiningField name="double(VATP009_N)"/>
						<MiningField name="double(VATP017_N)"/>
					</MiningSchema>
					<Node score="5.0">
						<True/>
						<Node score="10.023664553973461">
							<SimplePredicate field="double(VATP009_N)" operator="lessOrEqual" value="0.19323705549542353"/>
							<Node score="3.0">
								<SimplePredicate field="double(VATP016_N)" operator="lessOrEqual" value="0.10857251954814313"/>
							</Node>
							<Node score="4.0">
								<SimplePredicate field="double(VATP016_N)" operator="lessOrEqual" value="0.1515693590382658"/>
							</Node>
							<Node score="6.0">
								<SimplePredicate field="double(VATP016_N)" operator="lessOrEqual" value="0.20161583420163684"/>
								<Node score="7.0">
									<SimplePredicate field="double(VATP016_N)" operator="lessOrEqual" value="0.18438611288535228"/>
									<Node score="6.0">
										<SimplePredicate field="double(VATP009_N)" operator="lessOrEqual" value="0.14241729729190616"/>
									</Node>
								</Node>
								<Node score="7.0">
									<SimplePredicate field="double(VATP017_N)" operator="lessOrEqual" value="0.043256166521072836"/>
								</Node>
							</Node>
							<Node score="6.0">
								<SimplePredicate field="double(VATP016_N)" operator="lessOrEqual" value="0.21122616513964185"/>
							</Node>
							<Node score="7.0">
								<SimplePredicate field="double(VATP009_N)" operator="lessOrEqual" value="0.17185119617484776"/>
							</Node>
							<Node score="8.207392357589622">
								<SimplePredicate field="double(VATP017_N)" operator="lessOrEqual" value="0.0595181310341939"/>
							</Node>
						</Node>
						<Node score="6.0">
							<SimplePredicate field="double(VATP017_N)" operator="lessOrEqual" value="0.19967262086063184"/>
							<Node score="8.0">
								<SimplePredicate field="double(VATP009_N)" operator="lessOrEqual" value="0.2942633947158265"/>
								<Node score="6.0">
									<SimplePredicate field="double(VATP016_N)" operator="lessOrEqual" value="0.2698260446472361"/>
									<Node score="7.0">
										<SimplePredicate field="double(VATP017_N)" operator="lessOrEqual" value="0.03447833047917945"/>
										<Node score="6.0">
											<SimplePredicate field="double(VATP009_N)" operator="lessOrEqual" value="0.20340094136369813"/>
										</Node>
									</Node>
									<Node score="8.0">
										<SimplePredicate field="double(VATP016_N)" operator="lessOrEqual" value="0.26084708428266146"/>
										<Node score="7.0">
											<SimplePredicate field="double(VATP016_N)" operator="lessOrEqual" value="0.25802092397459353"/>
										</Node>
									</Node>
								</Node>
								<Node score="5.0">
									<SimplePredicate field="double(VATP016_N)" operator="lessOrEqual" value="0.27625404658525726"/>
								</Node>
								<Node score="11.695531732007485">
									<SimplePredicate field="double(VATP017_N)" operator="lessOrEqual" value="0.10447865496170004"/>
									<Node score="11.427187187583282">
										<SimplePredicate field="double(VATP016_N)" operator="lessOrEqual" value="0.3407739520514509"/>
									</Node>
								</Node>
								<Node score="7.0">
									<SimplePredicate field="double(VATP017_N)" operator="lessOrEqual" value="0.11115777133403339"/>
								</Node>
							</Node>
							<Node score="7.0">
								<SimplePredicate field="double(VATP017_N)" operator="lessOrEqual" value="0.07756731039466679"/>
								<Node score="10.941419697609339">
									<SimplePredicate field="double(VATP016_N)" operator="lessOrEqual" value="0.46444871266671706"/>
									<Node score="7.0">
										<SimplePredicate field="double(VATP009_N)" operator="lessOrEqual" value="0.3015888608159988"/>
										<Node score="8.0">
											<SimplePredicate field="double(VATP009_N)" operator="lessOrEqual" value="0.3012870816483146"/>
										</Node>
									</Node>
									<Node score="8.207392357589622">
										<SimplePredicate field="double(VATP016_N)" operator="lessOrEqual" value="0.39663757700880553"/>
									</Node>
								</Node>
								<Node score="6.0">
									<SimplePredicate field="double(VATP009_N)" operator="lessOrEqual" value="0.38821805544188276"/>
								</Node>
							</Node>
							<Node score="6.0">
								<SimplePredicate field="double(VATP009_N)" operator="lessOrEqual" value="0.35427036647076166"/>
							</Node>
						</Node>
						<Node score="5.0">
							<SimplePredicate field="double(VATP017_N)" operator="lessOrEqual" value="0.3700291613193502"/>
							<Node score="6.0">
								<SimplePredicate field="double(VATP016_N)" operator="lessOrEqual" value="0.45655398462998514"/>
								<Node score="5.0">
									<SimplePredicate field="double(VATP016_N)" operator="lessOrEqual" value="0.2677895224548592"/>
								</Node>
							</Node>
							<Node score="6.0">
								<SimplePredicate field="double(VATP016_N)" operator="lessOrEqual" value="0.4977711874514467"/>
							</Node>
						</Node>
						<Node score="5.0">
							<SimplePredicate field="double(VATP009_N)" operator="lessOrEqual" value="0.3096963340184766"/>
						</Node>
						<Node score="6.0">
							<SimplePredicate field="double(VATP016_N)" operator="lessOrEqual" value="0.6082090941868463"/>
						</Node>
					</Node>
				</TreeModel>
			</Segment>
			<Segment id="9">
				<True/>
				<TreeModel functionName="regression" missingValueStrategy="nullPrediction" noTrueChildStrategy="returnLastPrediction">
					<MiningSchema>
						<MiningField name="double(VATP016_N)"/>
						<MiningField name="double(VATP009_N)"/>
						<MiningField name="double(VATP017_N)"/>
					</MiningSchema>
					<Node score="2.0">
						<True/>
						<Node score="4.0">
							<SimplePredicate field="double(VATP017_N)" operator="lessOrEqual" value="0.16929491298829194"/>
							<Node score="7.0">
								<SimplePredicate field="double(VATP017_N)" operator="lessOrEqual" value="0.13114108772603272"/>
								<Node score="8.0">
									<SimplePredicate field="double(VATP017_N)" operator="lessOrEqual" value="0.10298959446476065"/>
									<Node score="7.0">
										<SimplePredicate field="double(VATP017_N)" operator="lessOrEqual" value="0.03714944762008377"/>
										<Node score="9.706640488004599">
											<SimplePredicate field="double(VATP016_N)" operator="lessOrEqual" value="0.41382803044586913"/>
											<Node score="7.0">
												<SimplePredicate field="double(VATP016_N)" operator="lessOrEqual" value="0.21647315246025575"/>
												<Node score="8.851655907139286">
													<SimplePredicate field="double(VATP017_N)" operator="lessOrEqual" value="0.011087864779364645"/>
												</Node>
											</Node>
											<Node score="13.14650919600858">
												<SimplePredicate field="double(VATP016_N)" operator="lessOrEqual" value="0.3917146880510766"/>
											</Node>
										</Node>
										<Node score="7.0">
											<SimplePredicate field="double(VATP017_N)" operator="lessOrEqual" value="0.0060839134002192916"/>
											<Node score="11.116888542066473">
												<SimplePredicate field="double(VATP016_N)" operator="lessOrEqual" value="0.580421952643452"/>
											</Node>
										</Node>
									</Node>
									<Node score="8.207392357589622">
										<SimplePredicate field="double(VATP009_N)" operator="lessOrEqual" value="0.3213076605618937"/>
										<Node score="8.0">
											<SimplePredicate field="double(VATP016_N)" operator="lessOrEqual" value="0.3050386498229043"/>
											<Node score="8.207392357589622">
												<SimplePredicate field="double(VATP017_N)" operator="lessOrEqual" value="0.0661895200615135"/>
											</Node>
										</Node>
										<Node score="7.0">
											<SimplePredicate field="double(VATP009_N)" operator="lessOrEqual" value="0.2623407205173522"/>
										</Node>
									</Node>
									<Node score="6.0">
										<SimplePredicate field="double(VATP017_N)" operator="lessOrEqual" value="0.07264357896023141"/>
									</Node>
									<Node score="7.0">
										<SimplePredicate field="double(VATP009_N)" operator="lessOrEqual" value="0.32864345123150734"/>
									</Node>
								</Node>
								<Node score="4.0">
									<SimplePredicate field="double(VATP009_N)" operator="lessOrEqual" value="0.2176530537530065"/>
								</Node>
								<Node score="5.0">
									<SimplePredicate field="double(VATP016_N)" operator="lessOrEqual" value="0.322590313086872"/>
								</Node>
								<Node score="6.0">
									<SimplePredicate field="double(VATP009_N)" operator="lessOrEqual" value="0.2870432186709138"/>
								</Node>
							</Node>
							<Node score="3.0">
								<SimplePredicate field="double(VATP016_N)" operator="lessOrEqual" value="0.3615058947837696"/>
							</Node>
						</Node>
						<Node score="6.0">
							<SimplePredicate field="double(VATP016_N)" operator="lessOrEqual" value="0.61085196691541"/>
							<Node score="3.0">
								<SimplePredicate field="double(VATP009_N)" operator="lessOrEqual" value="0.1222141695645974"/>
							</Node>
							<Node score="5.0">
								<SimplePredicate field="double(VATP009_N)" operator="lessOrEqual" value="0.3776253708977904"/>
								<Node score="8.0">
									<SimplePredicate field="double(VATP016_N)" operator="lessOrEqual" value="0.4589430634061614"/>
									<Node score="7.0">
										<SimplePredicate field="double(VATP009_N)" operator="lessOrEqual" value="0.2612733647708163"/>
										<Node score="10.023664553973461">
											<SimplePredicate field="double(VATP009_N)" operator="lessOrEqual" value="0.24948131629015785"/>
										</Node>
									</Node>
									<Node score="8.851655907139286">
										<SimplePredicate field="double(VATP017_N)" operator="lessOrEqual" value="0.2670390365518167"/>
									</Node>
								</Node>
							</Node>
							<Node score="5.0">
								<SimplePredicate field="double(VATP016_N)" operator="lessOrEqual" value="0.49169745994007336"/>
							</Node>
						</Node>
					</Node>
				</TreeModel>
			</Segment>
			<Segment id="10">
				<True/>
				<TreeModel functionName="regression" missingValueStrategy="nullPrediction" noTrueChildStrategy="returnLastPrediction">
					<MiningSchema>
						<MiningField name="double(VATP016_N)"/>
						<MiningField name="double(VATP009_N)"/>
						<MiningField name="double(VATP017_N)"/>
					</MiningSchema>
					<Node score="3.0">
						<True/>
						<Node score="6.0">
							<SimplePredicate field="double(VATP016_N)" operator="lessOrEqual" value="0.283443719852317"/>
							<Node score="4.0">
								<SimplePredicate field="double(VATP009_N)" operator="lessOrEqual" value="0.13286053507854276"/>
								<Node score="3.0">
									<SimplePredicate field="double(VATP009_N)" operator="lessOrEqual" value="0.11196313166308482"/>
								</Node>
							</Node>
							<Node score="6.0">
								<SimplePredicate field="double(VATP009_N)" operator="lessOrEqual" value="0.1667800534422298"/>
								<Node score="4.0">
									<SimplePredicate field="double(VATP009_N)" operator="lessOrEqual" value="0.14060852485579342"/>
								</Node>
								<Node score="6.0">
									<SimplePredicate field="double(VATP009_N)" operator="lessOrEqual" value="0.15093050968218005"/>
								</Node>
							</Node>
							<Node score="7.0">
								<SimplePredicate field="double(VATP016_N)" operator="lessOrEqual" value="0.2568379703224491"/>
								<Node score="8.0">
									<SimplePredicate field="double(VATP017_N)" operator="lessOrEqual" value="0.16357886829741958"/>
									<Node score="7.0">
										<SimplePredicate field="double(VATP017_N)" operator="lessOrEqual" value="0.042868574481301346"/>
										<Node score="10.53553663538496">
											<SimplePredicate field="double(VATP017_N)" operator="lessOrEqual" value="0.03794850581140753"/>
										</Node>
									</Node>
									<Node score="7.0">
										<SimplePredicate field="double(VATP016_N)" operator="lessOrEqual" value="0.23815533074826864"/>
									</Node>
								</Node>
								<Node score="6.0">
									<SimplePredicate field="double(VATP016_N)" operator="lessOrEqual" value="0.21706044251096673"/>
								</Node>
								<Node score="8.0">
									<SimplePredicate field="double(VATP016_N)" operator="lessOrEqual" value="0.23312976308802433"/>
								</Node>
							</Node>
							<Node score="6.0">
								<SimplePredicate field="double(VATP009_N)" operator="lessOrEqual" value="0.2187868970475152"/>
								<Node score="9.327020052042847">
									<SimplePredicate field="double(VATP017_N)" operator="lessOrEqual" value="0.18179425873924634"/>
									<Node score="7.0">
										<SimplePredicate field="double(VATP009_N)" operator="lessOrEqual" value="0.2052638143751804"/>
									</Node>
								</Node>
							</Node>
							<Node score="7.0">
								<SimplePredicate field="double(VATP016_N)" operator="lessOrEqual" value="0.2812542861238861"/>
							</Node>
						</Node>
						<Node score="4.0">
							<SimplePredicate field="double(VATP017_N)" operator="lessOrEqual" value="0.20286962932715916"/>
							<Node score="5.0">
								<SimplePredicate field="double(VATP016_N)" operator="lessOrEqual" value="0.5863329072769958"/>
								<Node score="5.0">
									<SimplePredicate field="double(VATP017_N)" operator="lessOrEqual" value="0.04854095434343373"/>
									<Node score="7.0">
										<SimplePredicate field="double(VATP016_N)" operator="lessOrEqual" value="0.5466880543090092"/>
										<Node score="10.023664553973461">
											<SimplePredicate field="double(VATP016_N)" operator="lessOrEqual" value="0.48549720887110537"/>
											<Node score="12.817533633240295">
												<SimplePredicate field="double(VATP017_N)" operator="lessOrEqual" value="0.016145825095974564"/>
											</Node>
										</Node>
										<Node score="9.327020052042847">
											<SimplePredicate field="double(VATP017_N)" operator="lessOrEqual" value="0.00834848638532561"/>
										</Node>
									</Node>
								</Node>
								<Node score="7.0">
									<SimplePredicate field="double(VATP016_N)" operator="lessOrEqual" value="0.43693720362020605"/>
									<Node score="9.327020052042847">
										<SimplePredicate field="double(VATP017_N)" operator="lessOrEqual" value="0.16589632464569526"/>
										<Node score="10.53553663538496">
											<SimplePredicate field="double(VATP009_N)" operator="lessOrEqual" value="0.2789237436169675"/>
										</Node>
									</Node>
								</Node>
							</Node>
						</Node>
						<Node score="5.0">
							<SimplePredicate field="double(VATP017_N)" operator="lessOrEqual" value="0.5386564423797595"/>
							<Node score="4.0">
								<SimplePredicate field="double(VATP016_N)" operator="lessOrEqual" value="0.36530002911639764"/>
							</Node>
						</Node>
					</Node>
				</TreeModel>
			</Segment>
			<Segment id="11">
				<True/>
				<TreeModel functionName="regression" missingValueStrategy="nullPrediction" noTrueChildStrategy="returnLastPrediction">
					<MiningSchema>
						<MiningField name="double(VATP016_N)"/>
						<MiningField name="double(VATP009_N)"/>
						<MiningField name="double(VATP017_N)"/>
					</MiningSchema>
					<Node score="3.0">
						<True/>
						<Node score="4.0">
							<SimplePredicate field="double(VATP017_N)" operator="lessOrEqual" value="0.22844907196614178"/>
							<Node score="5.0">
								<SimplePredicate field="double(VATP016_N)" operator="lessOrEqual" value="0.22384313127612984"/>
								<Node score="4.0">
									<SimplePredicate field="double(VATP009_N)" operator="lessOrEqual" value="0.12989364257332273"/>
								</Node>
								<Node score="5.0">
									<SimplePredicate field="double(VATP017_N)" operator="lessOrEqual" value="0.03376972742547664"/>
									<Node score="6.0">
										<SimplePredicate field="double(VATP017_N)" operator="lessOrEqual" value="0.02568338610182419"/>
										<Node score="7.0">
											<SimplePredicate field="double(VATP017_N)" operator="lessOrEqual" value="0.0014307474920063005"/>
											<Node score="8.0">
												<SimplePredicate field="double(VATP016_N)" operator="lessOrEqual" value="0.18954819186483415"/>
											</Node>
										</Node>
									</Node>
								</Node>
							</Node>
							<Node score="8.851655907139286">
								<SimplePredicate field="double(VATP017_N)" operator="lessOrEqual" value="0.19697319734692276"/>
								<Node score="5.0">
									<SimplePredicate field="double(VATP016_N)" operator="lessOrEqual" value="0.3355129908448073"/>
									<Node score="9.706640488004599">
										<SimplePredicate field="double(VATP017_N)" operator="lessOrEqual" value="0.17387653392460867"/>
										<Node score="12.241133972149143">
											<SimplePredicate field="double(VATP016_N)" operator="lessOrEqual" value="0.3098015233196844"/>
											<Node score="8.0">
												<SimplePredicate field="double(VATP009_N)" operator="lessOrEqual" value="0.1855718471340353"/>
											</Node>
										</Node>
										<Node score="9.706640488004599">
											<SimplePredicate field="double(VATP009_N)" operator="lessOrEqual" value="0.2534911042707923"/>
										</Node>
									</Node>
								</Node>
								<Node score="8.207392357589622">
									<SimplePredicate field="double(VATP016_N)" operator="lessOrEqual" value="0.36443745179726206"/>
									<Node score="8.851655907139286">
										<SimplePredicate field="double(VATP016_N)" operator="lessOrEqual" value="0.3477328547582495"/>
										<Node score="8.0">
											<SimplePredicate field="double(VATP009_N)" operator="lessOrEqual" value="0.26488555553472914"/>
										</Node>
									</Node>
									<Node score="8.207392357589622">
										<SimplePredicate field="double(VATP016_N)" operator="lessOrEqual" value="0.3554014003800236"/>
									</Node>
								</Node>
								<Node score="10.748880484475505">
									<SimplePredicate field="double(VATP017_N)" operator="lessOrEqual" value="0.10194530952770799"/>
									<Node score="11.565879322366916">
										<SimplePredicate field="double(VATP009_N)" operator="lessOrEqual" value="0.32876603532280807"/>
									</Node>
								</Node>
								<Node score="8.0">
									<SimplePredicate field="double(VATP016_N)" operator="lessOrEqual" value="0.3855429919023068"/>
								</Node>
							</Node>
						</Node>
						<Node score="3.0">
							<SimplePredicate field="double(VATP009_N)" operator="lessOrEqual" value="0.15784821765424734"/>
							<Node score="4.0">
								<SimplePredicate field="double(VATP017_N)" operator="lessOrEqual" value="0.38183641516997197"/>
							</Node>
						</Node>
						<Node score="5.0">
							<SimplePredicate field="double(VATP017_N)" operator="lessOrEqual" value="0.29264135810730973"/>
							<Node score="7.0">
								<SimplePredicate field="double(VATP016_N)" operator="lessOrEqual" value="0.511056737877464"/>
								<Node score="5.0">
									<SimplePredicate field="double(VATP017_N)" operator="lessOrEqual" value="0.24871719452079508"/>
								</Node>
								<Node score="6.0">
									<SimplePredicate field="double(VATP009_N)" operator="lessOrEqual" value="0.21043403769719793"/>
								</Node>
							</Node>
						</Node>
					</Node>
				</TreeModel>
			</Segment>
			<Segment id="12">
				<True/>
				<TreeModel functionName="regression" missingValueStrategy="nullPrediction" noTrueChildStrategy="returnLastPrediction">
					<MiningSchema>
						<MiningField name="double(VATP016_N)"/>
						<MiningField name="double(VATP009_N)"/>
						<MiningField name="double(VATP017_N)"/>
					</MiningSchema>
					<Node score="2.0">
						<True/>
						<Node score="6.0">
							<SimplePredicate field="double(VATP009_N)" operator="lessOrEqual" value="0.3639132802025064"/>
							<Node score="3.0">
								<SimplePredicate field="double(VATP009_N)" operator="lessOrEqual" value="0.2744230246854741"/>
								<Node score="7.0">
									<SimplePredicate field="double(VATP017_N)" operator="lessOrEqual" value="0.394078188497478"/>
									<Node score="8.0">
										<SimplePredicate field="double(VATP017_N)" operator="lessOrEqual" value="0.13883872350184842"/>
										<Node score="7.0">
											<SimplePredicate field="double(VATP009_N)" operator="lessOrEqual" value="0.2158074369091017"/>
											<Node score="8.851655907139286">
												<SimplePredicate field="double(VATP017_N)" operator="lessOrEqual" value="0.08078893599256463"/>
												<Node score="11.27809078322522">
													<SimplePredicate field="double(VATP017_N)" operator="lessOrEqual" value="3.4205058533385863E-4"/>
												</Node>
											</Node>
											<Node score="8.207392357589622">
												<SimplePredicate field="double(VATP009_N)" operator="lessOrEqual" value="0.17529410770090273"/>
											</Node>
										</Node>
										<Node score="10.296251627913692">
											<SimplePredicate field="double(VATP009_N)" operator="lessOrEqual" value="0.26787742169978845"/>
											<Node score="10.941419697609339">
												<SimplePredicate field="double(VATP017_N)" operator="lessOrEqual" value="0.012680216295420495"/>
											</Node>
										</Node>
										<Node score="8.0">
											<SimplePredicate field="double(VATP017_N)" operator="lessOrEqual" value="0.06666159992282877"/>
										</Node>
									</Node>
									<Node score="5.0">
										<SimplePredicate field="double(VATP017_N)" operator="lessOrEqual" value="0.181857633351263"/>
									</Node>
									<Node score="9.327020052042847">
										<SimplePredicate field="double(VATP016_N)" operator="lessOrEqual" value="0.29627677805768926"/>
										<Node score="7.0">
											<SimplePredicate field="double(VATP009_N)" operator="lessOrEqual" value="0.1662494527102053"/>
										</Node>
									</Node>
									<Node score="9.327020052042847">
										<SimplePredicate field="double(VATP017_N)" operator="lessOrEqual" value="0.2567218394593984"/>
									</Node>
								</Node>
							</Node>
							<Node score="7.0">
								<SimplePredicate field="double(VATP009_N)" operator="lessOrEqual" value="0.31106355453698226"/>
								<Node score="5.0">
									<SimplePredicate field="double(VATP016_N)" operator="lessOrEqual" value="0.36256174674804814"/>
								</Node>
								<Node score="9.327020052042847">
									<SimplePredicate field="double(VATP009_N)" operator="lessOrEqual" value="0.3058722452847169"/>
									<Node score="7.0">
										<SimplePredicate field="double(VATP016_N)" operator="lessOrEqual" value="0.37207123335417597"/>
									</Node>
									<Node score="7.0">
										<SimplePredicate field="double(VATP017_N)" operator="lessOrEqual" value="0.030077129266190175"/>
									</Node>
								</Node>
								<Node score="6.0">
									<SimplePredicate field="double(VATP016_N)" operator="lessOrEqual" value="0.39203550914134716"/>
								</Node>
							</Node>
							<Node score="4.0">
								<SimplePredicate field="double(VATP016_N)" operator="lessOrEqual" value="0.3983402280139821"/>
							</Node>
							<Node score="7.0">
								<SimplePredicate field="double(VATP009_N)" operator="lessOrEqual" value="0.34228660560352187"/>
								<Node score="9.706640488004599">
									<SimplePredicate field="double(VATP009_N)" operator="lessOrEqual" value="0.32824534900356084"/>
									<Node score="8.0">
										<SimplePredicate field="double(VATP016_N)" operator="lessOrEqual" value="0.40005385047555403"/>
									</Node>
								</Node>
								<Node score="8.207392357589622">
									<SimplePredicate field="double(VATP017_N)" operator="lessOrEqual" value="0.09606183513892069"/>
								</Node>
							</Node>
						</Node>
						<Node score="3.0">
							<SimplePredicate field="double(VATP017_N)" operator="lessOrEqual" value="0.22255965950991627"/>
							<Node score="6.0">
								<SimplePredicate field="double(VATP017_N)" operator="lessOrEqual" value="0.20695142583942056"/>
								<Node score="4.0">
									<SimplePredicate field="double(VATP009_N)" operator="lessOrEqual" value="0.3752586075196495"/>
								</Node>
								<Node score="8.851655907139286">
									<SimplePredicate field="double(VATP017_N)" operator="lessOrEqual" value="0.05437566375341563"/>
									<Node score="7.0">
										<SimplePredicate field="double(VATP016_N)" operator="lessOrEqual" value="0.48427294964295947"/>
									</Node>
									<Node score="7.0">
										<SimplePredicate field="double(VATP009_N)" operator="lessOrEqual" value="0.41549282008934135"/>
									</Node>
								</Node>
								<Node score="8.0">
									<SimplePredicate field="double(VATP009_N)" operator="lessOrEqual" value="0.4119027219539351"/>
									<Node score="7.0">
										<SimplePredicate field="double(VATP016_N)" operator="lessOrEqual" value="0.5095957654463106"/>
									</Node>
								</Node>
							</Node>
						</Node>
					</Node>
				</TreeModel>
			</Segment>
			<Segment id="13">
				<True/>
				<TreeModel functionName="regression" missingValueStrategy="nullPrediction" noTrueChildStrategy="returnLastPrediction">
					<MiningSchema>
						<MiningField name="double(VATP016_N)"/>
						<MiningField name="double(VATP009_N)"/>
						<MiningField name="double(VATP017_N)"/>
					</MiningSchema>
					<Node score="2.0">
						<True/>
						<Node score="4.0">
							<SimplePredicate field="double(VATP009_N)" operator="lessOrEqual" value="0.3899562758055069"/>
							<Node score="6.0">
								<SimplePredicate field="double(VATP017_N)" operator="lessOrEqual" value="0.235294274997761"/>
								<Node score="9.706640488004599">
									<SimplePredicate field="double(VATP017_N)" operator="lessOrEqual" value="0.16084384543848962"/>
									<Node score="6.0">
										<SimplePredicate field="double(VATP016_N)" operator="lessOrEqual" value="0.20289011304432938"/>
										<Node score="6.0">
											<SimplePredicate field="double(VATP016_N)" operator="lessOrEqual" value="0.1976235804140946"/>
											<Node score="7.0">
												<SimplePredicate field="double(VATP017_N)" operator="lessOrEqual" value="0.07445533025724796"/>
											</Node>
										</Node>
									</Node>
									<Node score="8.207392357589622">
										<SimplePredicate field="double(VATP009_N)" operator="lessOrEqual" value="0.2458809494710373"/>
										<Node score="7.0">
											<SimplePredicate field="double(VATP009_N)" operator="lessOrEqual" value="0.2278222820813468"/>
											<Node score="11.817255833106158">
												<SimplePredicate field="double(VATP017_N)" operator="lessOrEqual" value="0.12029276080356992"/>
											</Node>
										</Node>
										<Node score="9.706640488004599">
											<SimplePredicate field="double(VATP017_N)" operator="lessOrEqual" value="0.03164398685317877"/>
										</Node>
									</Node>
									<Node score="7.0">
										<SimplePredicate field="double(VATP016_N)" operator="lessOrEqual" value="0.45350179315983896"/>
										<Node score="13.37552326076934">
											<SimplePredicate field="double(VATP016_N)" operator="lessOrEqual" value="0.4531935615411232"/>
										</Node>
									</Node>
									<Node score="7.0">
										<SimplePredicate field="double(VATP016_N)" operator="lessOrEqual" value="0.4605032006056477"/>
									</Node>
								</Node>
								<Node score="5.0">
									<SimplePredicate field="double(VATP016_N)" operator="lessOrEqual" value="0.3767620653745677"/>
									<Node score="7.0">
										<SimplePredicate field="double(VATP009_N)" operator="lessOrEqual" value="0.2586436325656443"/>
										<Node score="6.0">
											<SimplePredicate field="double(VATP016_N)" operator="lessOrEqual" value="0.28060761651988875"/>
										</Node>
									</Node>
								</Node>
								<Node score="6.0">
									<SimplePredicate field="double(VATP009_N)" operator="lessOrEqual" value="0.3206450329754986"/>
									<Node score="7.0">
										<SimplePredicate field="double(VATP016_N)" operator="lessOrEqual" value="0.38780976240773773"/>
									</Node>
								</Node>
								<Node score="7.0">
									<SimplePredicate field="double(VATP009_N)" operator="lessOrEqual" value="0.3775307385014533"/>
								</Node>
							</Node>
							<Node score="5.0">
								<SimplePredicate field="double(VATP009_N)" operator="lessOrEqual" value="0.23716510880308933"/>
								<Node score="4.0">
									<SimplePredicate field="double(VATP009_N)" operator="lessOrEqual" value="0.2048256769085285"/>
								</Node>
							</Node>
						</Node>
						<Node score="4.0">
							<SimplePredicate field="double(VATP016_N)" operator="lessOrEqual" value="0.7395021498378215"/>
							<Node score="4.0">
								<SimplePredicate field="double(VATP017_N)" operator="lessOrEqual" value="0.4237359811265834"/>
								<Node score="6.0">
									<SimplePredicate field="double(VATP009_N)" operator="lessOrEqual" value="0.4838351983884315"/>
									<Node score="6.0">
										<SimplePredicate field="double(VATP017_N)" operator="lessOrEqual" value="0.04700527576344898"/>
									</Node>
								</Node>
							</Node>
						</Node>
					</Node>
				</TreeModel>
			</Segment>
			<Segment id="14">
				<True/>
				<TreeModel functionName="regression" missingValueStrategy="nullPrediction" noTrueChildStrategy="returnLastPrediction">
					<MiningSchema>
						<MiningField name="double(VATP016_N)"/>
						<MiningField name="double(VATP009_N)"/>
						<MiningField name="double(VATP017_N)"/>
					</MiningSchema>
					<Node score="4.0">
						<True/>
						<Node score="3.0">
							<SimplePredicate field="double(VATP009_N)" operator="lessOrEqual" value="0.16187355005842952"/>
							<Node score="3.0">
								<SimplePredicate field="double(VATP017_N)" operator="lessOrEqual" value="0.1345971323025686"/>
							</Node>
						</Node>
						<Node score="8.0">
							<SimplePredicate field="double(VATP016_N)" operator="lessOrEqual" value="0.34594257011751683"/>
							<Node score="5.0">
								<SimplePredicate field="double(VATP009_N)" operator="lessOrEqual" value="0.22307613819664984"/>
								<Node score="7.0">
									<SimplePredicate field="double(VATP017_N)" operator="lessOrEqual" value="0.2550523950834938"/>
									<Node score="8.0">
										<SimplePredicate field="double(VATP017_N)" operator="lessOrEqual" value="0.008656037688624189"/>
										<Node score="8.0">
											<SimplePredicate field="double(VATP009_N)" operator="lessOrEqual" value="0.19473452360637294"/>
											<Node score="7.0">
												<SimplePredicate field="double(VATP009_N)" operator="lessOrEqual" value="0.16405706497150335"/>
											</Node>
										</Node>
										<Node score="8.0">
											<SimplePredicate field="double(VATP009_N)" operator="lessOrEqual" value="0.21019312006241622"/>
										</Node>
									</Node>
									<Node score="7.0">
										<SimplePredicate field="double(VATP016_N)" operator="lessOrEqual" value="0.2508267404381051"/>
										<Node score="8.207392357589622">
											<SimplePredicate field="double(VATP017_N)" operator="lessOrEqual" value="0.08101035247860755"/>
										</Node>
									</Node>
								</Node>
								<Node score="6.0">
									<SimplePredicate field="double(VATP016_N)" operator="lessOrEqual" value="0.23136431061522741"/>
								</Node>
							</Node>
							<Node score="6.0">
								<SimplePredicate field="double(VATP016_N)" operator="lessOrEqual" value="0.3157979161253872"/>
								<Node score="5.0">
									<SimplePredicate field="double(VATP016_N)" operator="lessOrEqual" value="0.28686448520373664"/>
								</Node>
								<Node score="7.0">
									<SimplePredicate field="double(VATP009_N)" operator="lessOrEqual" value="0.24611313090560222"/>
									<Node score="10.53553663538496">
										<SimplePredicate field="double(VATP017_N)" operator="lessOrEqual" value="0.0706941645719352"/>
									</Node>
								</Node>
							</Node>
							<Node score="6.0">
								<SimplePredicate field="double(VATP009_N)" operator="lessOrEqual" value="0.2537319196201538"/>
								<Node score="7.0">
									<SimplePredicate field="double(VATP017_N)" operator="lessOrEqual" value="0.022249994780429605"/>
									<Node score="8.0">
										<SimplePredicate field="double(VATP016_N)" operator="lessOrEqual" value="0.31910596149228776"/>
									</Node>
								</Node>
							</Node>
							<Node score="8.0">
								<SimplePredicate field="double(VATP016_N)" operator="lessOrEqual" value="0.33968590290987755"/>
								<Node score="10.023664553973461">
									<SimplePredicate field="double(VATP017_N)" operator="lessOrEqual" value="0.08802257885687431"/>
								</Node>
							</Node>
							<Node score="8.0">
								<SimplePredicate field="double(VATP016_N)" operator="lessOrEqual" value="0.3434894884968607"/>
							</Node>
						</Node>
						<Node score="6.0">
							<SimplePredicate field="double(VATP016_N)" operator="lessOrEqual" value="0.50474180218318"/>
							<Node score="7.0">
								<SimplePredicate field="double(VATP017_N)" operator="lessOrEqual" value="0.16521020997990357"/>
								<Node score="8.207392357589622">
									<SimplePredicate field="double(VATP016_N)" operator="lessOrEqual" value="0.37880421127007696"/>
									<Node score="8.0">
										<SimplePredicate field="double(VATP009_N)" operator="lessOrEqual" value="0.2839254484819452"/>
										<Node score="8.207392357589622">
											<SimplePredicate field="double(VATP009_N)" operator="lessOrEqual" value="0.27788148264129503"/>
										</Node>
									</Node>
									<Node score="7.0">
										<SimplePredicate field="double(VATP016_N)" operator="lessOrEqual" value="0.36925744847885544"/>
									</Node>
								</Node>
								<Node score="8.207392357589622">
									<SimplePredicate field="double(VATP009_N)" operator="lessOrEqual" value="0.33660927857685463"/>
									<Node score="11.427187187583282">
										<SimplePredicate field="double(VATP017_N)" operator="lessOrEqual" value="0.07076216206526541"/>
									</Node>
								</Node>
								<Node score="10.941419697609339">
									<SimplePredicate field="double(VATP017_N)" operator="lessOrEqual" value="0.0763791099230474"/>
								</Node>
							</Node>
							<Node score="6.0">
								<SimplePredicate field="double(VATP017_N)" operator="lessOrEqual" value="0.2000994538234543"/>
								<Node score="7.0">
									<SimplePredicate field="double(VATP009_N)" operator="lessOrEqual" value="0.33334747657504443"/>
								</Node>
							</Node>
							<Node score="7.0">
								<SimplePredicate field="double(VATP017_N)" operator="lessOrEqual" value="0.2887612045880221"/>
							</Node>
						</Node>
						<Node score="6.0">
							<SimplePredicate field="double(VATP017_N)" operator="lessOrEqual" value="0.3126628371779254"/>
							<Node score="6.0">
								<SimplePredicate field="double(VATP016_N)" operator="lessOrEqual" value="0.514558737577714"/>
							</Node>
							<Node score="8.0">
								<SimplePredicate field="double(VATP009_N)" operator="lessOrEqual" value="0.43605201463486837"/>
								<Node score="7.0">
									<SimplePredicate field="double(VATP016_N)" operator="lessOrEqual" value="0.526534789947071"/>
								</Node>
							</Node>
						</Node>
					</Node>
				</TreeModel>
			</Segment>
			<Segment id="15">
				<True/>
				<TreeModel functionName="regression" missingValueStrategy="nullPrediction" noTrueChildStrategy="returnLastPrediction">
					<MiningSchema>
						<MiningField name="double(VATP016_N)"/>
						<MiningField name="double(VATP009_N)"/>
						<MiningField name="double(VATP017_N)"/>
					</MiningSchema>
					<Node score="5.0">
						<True/>
						<Node score="4.0">
							<SimplePredicate field="double(VATP009_N)" operator="lessOrEqual" value="0.23359465504462107"/>
							<Node score="5.0">
								<SimplePredicate field="double(VATP017_N)" operator="lessOrEqual" value="0.2882661589347464"/>
								<Node score="5.0">
									<SimplePredicate field="double(VATP009_N)" operator="lessOrEqual" value="0.16996250127278695"/>
									<Node score="7.0">
										<SimplePredicate field="double(VATP017_N)" operator="lessOrEqual" value="0.0485960684694796"/>
										<Node score="5.0">
											<SimplePredicate field="double(VATP009_N)" operator="lessOrEqual" value="0.11355455614048665"/>
										</Node>
										<Node score="7.0">
											<SimplePredicate field="double(VATP009_N)" operator="lessOrEqual" value="0.15251024182408504"/>
										</Node>
									</Node>
								</Node>
								<Node score="8.0">
									<SimplePredicate field="double(VATP016_N)" operator="lessOrEqual" value="0.27911970053934654"/>
									<Node score="7.0">
										<SimplePredicate field="double(VATP017_N)" operator="lessOrEqual" value="0.029824080356880986"/>
										<Node score="8.0">
											<SimplePredicate field="double(VATP016_N)" operator="lessOrEqual" value="0.2515938566290671"/>
											<Node score="8.0">
												<SimplePredicate field="double(VATP016_N)" operator="lessOrEqual" value="0.24752411663955945"/>
											</Node>
										</Node>
										<Node score="10.296251627913692">
											<SimplePredicate field="double(VATP017_N)" operator="lessOrEqual" value="0.014893464109149868"/>
										</Node>
									</Node>
									<Node score="8.0">
										<SimplePredicate field="double(VATP016_N)" operator="lessOrEqual" value="0.25372294735693623"/>
										<Node score="7.0">
											<SimplePredicate field="double(VATP009_N)" operator="lessOrEqual" value="0.17918284721807956"/>
										</Node>
									</Node>
									<Node score="8.0">
										<SimplePredicate field="double(VATP017_N)" operator="lessOrEqual" value="0.19451482978137652"/>
									</Node>
								</Node>
								<Node score="7.0">
									<SimplePredicate field="double(VATP017_N)" operator="lessOrEqual" value="0.01513721226301535"/>
									<Node score="6.0">
										<SimplePredicate field="double(VATP016_N)" operator="lessOrEqual" value="0.2880599033316288"/>
									</Node>
									<Node score="8.0">
										<SimplePredicate field="double(VATP016_N)" operator="lessOrEqual" value="0.29364004623157625"/>
									</Node>
								</Node>
							</Node>
							<Node score="3.0">
								<SimplePredicate field="double(VATP016_N)" operator="lessOrEqual" value="0.17969707622924103"/>
							</Node>
							<Node score="5.0">
								<SimplePredicate field="double(VATP017_N)" operator="lessOrEqual" value="0.3688572089326831"/>
							</Node>
						</Node>
						<Node score="7.0">
							<SimplePredicate field="double(VATP017_N)" operator="lessOrEqual" value="0.1846910751816479"/>
							<Node score="8.0">
								<SimplePredicate field="double(VATP016_N)" operator="lessOrEqual" value="0.4279220993891994"/>
								<Node score="7.0">
									<SimplePredicate field="double(VATP017_N)" operator="lessOrEqual" value="0.101416245400988"/>
									<Node score="8.0">
										<SimplePredicate field="double(VATP017_N)" operator="lessOrEqual" value="0.06694582198195924"/>
										<Node score="10.023664553973461">
											<SimplePredicate field="double(VATP017_N)" operator="lessOrEqual" value="0.008415643692114299"/>
											<Node score="8.207392357589622">
												<SimplePredicate field="double(VATP009_N)" operator="lessOrEqual" value="0.2712794782499144"/>
											</Node>
										</Node>
										<Node score="8.207392357589622">
											<SimplePredicate field="double(VATP009_N)" operator="lessOrEqual" value="0.26888802325107564"/>
										</Node>
									</Node>
									<Node score="7.0">
										<SimplePredicate field="double(VATP009_N)" operator="lessOrEqual" value="0.25979887182786526"/>
										<Node score="8.0">
											<SimplePredicate field="double(VATP016_N)" operator="lessOrEqual" value="0.3108227371464886"/>
										</Node>
									</Node>
								</Node>
								<Node score="7.0">
									<SimplePredicate field="double(VATP009_N)" operator="lessOrEqual" value="0.2751691970103257"/>
									<Node score="7.0">
										<SimplePredicate field="double(VATP017_N)" operator="lessOrEqual" value="0.1266937248828277"/>
										<Node score="8.0">
											<SimplePredicate field="double(VATP009_N)" operator="lessOrEqual" value="0.26132951896269924"/>
										</Node>
									</Node>
								</Node>
								<Node score="7.0">
									<SimplePredicate field="double(VATP016_N)" operator="lessOrEqual" value="0.40164161214480076"/>
								</Node>
								<Node score="7.0">
									<SimplePredicate field="double(VATP009_N)" operator="lessOrEqual" value="0.3218782718452905"/>
								</Node>
							</Node>
							<Node score="6.0">
								<SimplePredicate field="double(VATP009_N)" operator="lessOrEqual" value="0.34722930309959904"/>
								<Node score="5.0">
									<SimplePredicate field="double(VATP009_N)" operator="lessOrEqual" value="0.34143586711862595"/>
								</Node>
							</Node>
							<Node score="8.207392357589622">
								<SimplePredicate field="double(VATP017_N)" operator="lessOrEqual" value="0.1289709748798079"/>
								<Node score="7.0">
									<SimplePredicate field="double(VATP017_N)" operator="lessOrEqual" value="0.07330414602296426"/>
									<Node score="10.748880484475505">
										<SimplePredicate field="double(VATP017_N)" operator="lessOrEqual" value="0.011470243222753447"/>
									</Node>
								</Node>
								<Node score="8.0">
									<SimplePredicate field="double(VATP017_N)" operator="lessOrEqual" value="0.0962985827879339"/>
								</Node>
							</Node>
							<Node score="7.0">
								<SimplePredicate field="double(VATP016_N)" operator="lessOrEqual" value="0.5248703016274856"/>
							</Node>
						</Node>
						<Node score="3.0">
							<SimplePredicate field="double(VATP009_N)" operator="lessOrEqual" value="0.2542107213392954"/>
						</Node>
						<Node score="7.0">
							<SimplePredicate field="double(VATP009_N)" operator="lessOrEqual" value="0.4018139787331054"/>
							<Node score="7.0">
								<SimplePredicate field="double(VATP009_N)" operator="lessOrEqual" value="0.3475346133576548"/>
								<Node score="8.0">
									<SimplePredicate field="double(VATP009_N)" operator="lessOrEqual" value="0.3158035342540539"/>
									<Node score="7.0">
										<SimplePredicate field="double(VATP016_N)" operator="lessOrEqual" value="0.3587040927773156"/>
									</Node>
								</Node>
							</Node>
							<Node score="6.0">
								<SimplePredicate field="double(VATP009_N)" operator="lessOrEqual" value="0.3557795525536896"/>
							</Node>
						</Node>
					</Node>
				</TreeModel>
			</Segment>
			<Segment id="16">
				<True/>
				<TreeModel functionName="regression" missingValueStrategy="nullPrediction" noTrueChildStrategy="returnLastPrediction">
					<MiningSchema>
						<MiningField name="double(VATP016_N)"/>
						<MiningField name="double(VATP009_N)"/>
						<MiningField name="double(VATP017_N)"/>
					</MiningSchema>
					<Node score="4.0">
						<True/>
						<Node score="2.0">
							<SimplePredicate field="double(VATP017_N)" operator="lessOrEqual" value="0.14117094537536998"/>
							<Node score="5.0">
								<SimplePredicate field="double(VATP009_N)" operator="lessOrEqual" value="0.4156188413936029"/>
								<Node score="7.0">
									<SimplePredicate field="double(VATP009_N)" operator="lessOrEqual" value="0.29208284660907"/>
									<Node score="10.023664553973461">
										<SimplePredicate field="double(VATP017_N)" operator="lessOrEqual" value="0.07641517828840173"/>
										<Node score="8.0">
											<SimplePredicate field="double(VATP016_N)" operator="lessOrEqual" value="0.2856810075645465"/>
											<Node score="8.0">
												<SimplePredicate field="double(VATP016_N)" operator="lessOrEqual" value="0.18044695686774587"/>
												<Node score="7.0">
													<SimplePredicate field="double(VATP016_N)" operator="lessOrEqual" value="0.14403219231008188"/>
												</Node>
											</Node>
											<Node score="11.931969129026609">
												<SimplePredicate field="double(VATP009_N)" operator="lessOrEqual" value="0.22252483831383385"/>
											</Node>
										</Node>
										<Node score="7.0">
											<SimplePredicate field="double(VATP009_N)" operator="lessOrEqual" value="0.2589389303405001"/>
											<Node score="8.851655907139286">
												<SimplePredicate field="double(VATP017_N)" operator="lessOrEqual" value="0.0014744709752427605"/>
											</Node>
										</Node>
										<Node score="9.327020052042847">
											<SimplePredicate field="double(VATP016_N)" operator="lessOrEqual" value="0.3443742970106935"/>
										</Node>
									</Node>
									<Node score="7.0">
										<SimplePredicate field="double(VATP017_N)" operator="lessOrEqual" value="0.09696865949767831"/>
										<Node score="7.0">
											<SimplePredicate field="double(VATP017_N)" operator="lessOrEqual" value="0.09182180218478635"/>
										</Node>
									</Node>
									<Node score="6.0">
										<SimplePredicate field="double(VATP009_N)" operator="lessOrEqual" value="0.20780687561771266"/>
									</Node>
									<Node score="8.0">
										<SimplePredicate field="double(VATP016_N)" operator="lessOrEqual" value="0.32186021414984406"/>
									</Node>
								</Node>
								<Node score="8.207392357589622">
									<SimplePredicate field="double(VATP009_N)" operator="lessOrEqual" value="0.35379021055950083"/>
									<Node score="7.0">
										<SimplePredicate field="double(VATP016_N)" operator="lessOrEqual" value="0.4031563414689471"/>
										<Node score="7.0">
											<SimplePredicate field="double(VATP017_N)" operator="lessOrEqual" value="0.06875576249364108"/>
											<Node score="9.327020052042847">
												<SimplePredicate field="double(VATP017_N)" operator="lessOrEqual" value="0.015648935996978256"/>
											</Node>
										</Node>
									</Node>
									<Node score="7.0">
										<SimplePredicate field="double(VATP009_N)" operator="lessOrEqual" value="0.3449154384243319"/>
										<Node score="9.706640488004599">
											<SimplePredicate field="double(VATP009_N)" operator="lessOrEqual" value="0.3330422114224181"/>
										</Node>
									</Node>
									<Node score="7.0">
										<SimplePredicate field="double(VATP009_N)" operator="lessOrEqual" value="0.3474336622168649"/>
									</Node>
								</Node>
								<Node score="6.0">
									<SimplePredicate field="double(VATP017_N)" operator="lessOrEqual" value="0.06380689980436703"/>
									<Node score="7.0">
										<SimplePredicate field="double(VATP017_N)" operator="lessOrEqual" value="4.759661496755664E-4"/>
									</Node>
								</Node>
							</Node>
						</Node>
						<Node score="5.0">
							<SimplePredicate field="double(VATP017_N)" operator="lessOrEqual" value="0.333940267341128"/>
							<Node score="6.0">
								<SimplePredicate field="double(VATP017_N)" operator="lessOrEqual" value="0.19730010560262676"/>
								<Node score="4.0">
									<SimplePredicate field="double(VATP009_N)" operator="lessOrEqual" value="0.2257471235645527"/>
								</Node>
								<Node score="8.0">
									<SimplePredicate field="double(VATP016_N)" operator="lessOrEqual" value="0.4089410391302949"/>
									<Node score="6.0">
										<SimplePredicate field="double(VATP016_N)" operator="lessOrEqual" value="0.30680538206358277"/>
									</Node>
									<Node score="7.0">
										<SimplePredicate field="double(VATP009_N)" operator="lessOrEqual" value="0.29256478748265374"/>
									</Node>
								</Node>
								<Node score="7.0">
									<SimplePredicate field="double(VATP017_N)" operator="lessOrEqual" value="0.17061625436685998"/>
								</Node>
							</Node>
							<Node score="7.0">
								<SimplePredicate field="double(VATP017_N)" operator="lessOrEqual" value="0.22218491331685075"/>
								<Node score="6.0">
									<SimplePredicate field="double(VATP016_N)" operator="lessOrEqual" value="0.3286487199724434"/>
								</Node>
								<Node score="6.0">
									<SimplePredicate field="double(VATP017_N)" operator="lessOrEqual" value="0.2025047682581459"/>
								</Node>
							</Node>
							<Node score="10.023664553973461">
								<SimplePredicate field="double(VATP017_N)" operator="lessOrEqual" value="0.31865386884432156"/>
								<Node score="8.0">
									<SimplePredicate field="double(VATP009_N)" operator="lessOrEqual" value="0.24105243729585923"/>
									<Node score="7.0">
										<SimplePredicate field="double(VATP016_N)" operator="lessOrEqual" value="0.18600373767281556"/>
									</Node>
								</Node>
								<Node score="7.0">
									<SimplePredicate field="double(VATP009_N)" operator="lessOrEqual" value="0.2518307188211993"/>
								</Node>
							</Node>
						</Node>
						<Node score="3.0">
							<SimplePredicate field="double(VATP009_N)" operator="lessOrEqual" value="0.3956294734648728"/>
						</Node>
					</Node>
				</TreeModel>
			</Segment>
			<Segment id="17">
				<True/>
				<TreeModel functionName="regression" missingValueStrategy="nullPrediction" noTrueChildStrategy="returnLastPrediction">
					<MiningSchema>
						<MiningField name="double(VATP016_N)"/>
						<MiningField name="double(VATP009_N)"/>
						<MiningField name="double(VATP017_N)"/>
					</MiningSchema>
					<Node score="3.0">
						<True/>
						<Node score="3.0">
							<SimplePredicate field="double(VATP017_N)" operator="lessOrEqual" value="0.045498948556484946"/>
							<Node score="5.0">
								<SimplePredicate field="double(VATP016_N)" operator="lessOrEqual" value="0.5413975293053364"/>
								<Node score="6.0">
									<SimplePredicate field="double(VATP017_N)" operator="lessOrEqual" value="0.030317609196425562"/>
									<Node score="8.0">
										<SimplePredicate field="double(VATP016_N)" operator="lessOrEqual" value="0.39286244626021827"/>
										<Node score="8.0">
											<SimplePredicate field="double(VATP009_N)" operator="lessOrEqual" value="0.17604399005216015"/>
											<Node score="9.327020052042847">
												<SimplePredicate field="double(VATP016_N)" operator="lessOrEqual" value="0.21388574250819403"/>
												<Node score="7.0">
													<SimplePredicate field="double(VATP009_N)" operator="lessOrEqual" value="0.12698681693976216"/>
												</Node>
											</Node>
											<Node score="7.0">
												<SimplePredicate field="double(VATP009_N)" operator="lessOrEqual" value="0.17040510149804414"/>
											</Node>
										</Node>
										<Node score="12.04043800349013">
											<SimplePredicate field="double(VATP016_N)" operator="lessOrEqual" value="0.3666685364240083"/>
											<Node score="8.851655907139286">
												<SimplePredicate field="double(VATP009_N)" operator="lessOrEqual" value="0.20054950417602632"/>
											</Node>
										</Node>
										<Node score="7.0">
											<SimplePredicate field="double(VATP009_N)" operator="lessOrEqual" value="0.30142127023731524"/>
										</Node>
									</Node>
									<Node score="8.0">
										<SimplePredicate field="double(VATP009_N)" operator="lessOrEqual" value="0.35280864527481065"/>
										<Node score="8.851655907139286">
											<SimplePredicate field="double(VATP016_N)" operator="lessOrEqual" value="0.40634394317771405"/>
											<Node score="8.0">
												<SimplePredicate field="double(VATP009_N)" operator="lessOrEqual" value="0.3120528670607009"/>
											</Node>
										</Node>
										<Node score="8.851655907139286">
											<SimplePredicate field="double(VATP017_N)" operator="lessOrEqual" value="0.007604116403076118"/>
										</Node>
									</Node>
									<Node score="9.327020052042847">
										<SimplePredicate field="double(VATP009_N)" operator="lessOrEqual" value="0.4150496765920721"/>
										<Node score="8.207392357589622">
											<SimplePredicate field="double(VATP016_N)" operator="lessOrEqual" value="0.4839296518934929"/>
										</Node>
									</Node>
								</Node>
								<Node score="4.0">
									<SimplePredicate field="double(VATP016_N)" operator="lessOrEqual" value="0.1946846429194332"/>
								</Node>
								<Node score="6.0">
									<SimplePredicate field="double(VATP016_N)" operator="lessOrEqual" value="0.4078258756815571"/>
								</Node>
							</Node>
						</Node>
						<Node score="5.0">
							<SimplePredicate field="double(VATP017_N)" operator="lessOrEqual" value="0.25649914070821367"/>
							<Node score="6.0">
								<SimplePredicate field="double(VATP009_N)" operator="lessOrEqual" value="0.27137839475346803"/>
								<Node score="5.0">
									<SimplePredicate field="double(VATP017_N)" operator="lessOrEqual" value="0.07934022892397606"/>
									<Node score="6.0">
										<SimplePredicate field="double(VATP009_N)" operator="lessOrEqual" value="0.26059902876639146"/>
									</Node>
								</Node>
								<Node score="8.207392357589622">
									<SimplePredicate field="double(VATP009_N)" operator="lessOrEqual" value="0.22438623629736354"/>
									<Node score="8.0">
										<SimplePredicate field="double(VATP017_N)" operator="lessOrEqual" value="0.12908004490638741"/>
										<Node score="8.0">
											<SimplePredicate field="double(VATP016_N)" operator="lessOrEqual" value="0.20612764153909913"/>
										</Node>
									</Node>
									<Node score="7.0">
										<SimplePredicate field="double(VATP009_N)" operator="lessOrEqual" value="0.17290566648195352"/>
									</Node>
								</Node>
								<Node score="7.0">
									<SimplePredicate field="double(VATP016_N)" operator="lessOrEqual" value="0.3318187878828013"/>
									<Node score="8.0">
										<SimplePredicate field="double(VATP017_N)" operator="lessOrEqual" value="0.1351339407634406"/>
									</Node>
								</Node>
							</Node>
							<Node score="7.0">
								<SimplePredicate field="double(VATP009_N)" operator="lessOrEqual" value="0.3231771038078763"/>
								<Node score="7.0">
									<SimplePredicate field="double(VATP016_N)" operator="lessOrEqual" value="0.36768190057495603"/>
									<Node score="7.0">
										<SimplePredicate field="double(VATP009_N)" operator="lessOrEqual" value="0.2841457005927435"/>
									</Node>
								</Node>
								<Node score="6.0">
									<SimplePredicate field="double(VATP016_N)" operator="lessOrEqual" value="0.3774233196596079"/>
								</Node>
								<Node score="8.851655907139286">
									<SimplePredicate field="double(VATP017_N)" operator="lessOrEqual" value="0.2256798505129027"/>
								</Node>
							</Node>
							<Node score="6.0">
								<SimplePredicate field="double(VATP009_N)" operator="lessOrEqual" value="0.39437360472861704"/>
								<Node score="8.0">
									<SimplePredicate field="double(VATP016_N)" operator="lessOrEqual" value="0.45983417558243483"/>
									<Node score="8.0">
										<SimplePredicate field="double(VATP009_N)" operator="lessOrEqual" value="0.34301959839482854"/>
									</Node>
								</Node>
							</Node>
						</Node>
						<Node score="6.0">
							<SimplePredicate field="double(VATP017_N)" operator="lessOrEqual" value="0.33500916511683876"/>
							<Node score="6.0">
								<SimplePredicate field="double(VATP009_N)" operator="lessOrEqual" value="0.315452194959852"/>
								<Node score="5.0">
									<SimplePredicate field="double(VATP016_N)" operator="lessOrEqual" value="0.2177602869969628"/>
								</Node>
							</Node>
							<Node score="5.0">
								<SimplePredicate field="double(VATP009_N)" operator="lessOrEqual" value="0.3687218098908851"/>
							</Node>
						</Node>
					</Node>
				</TreeModel>
			</Segment>
			<Segment id="18">
				<True/>
				<TreeModel functionName="regression" missingValueStrategy="nullPrediction" noTrueChildStrategy="returnLastPrediction">
					<MiningSchema>
						<MiningField name="double(VATP016_N)"/>
						<MiningField name="double(VATP009_N)"/>
						<MiningField name="double(VATP017_N)"/>
					</MiningSchema>
					<Node score="6.0">
						<True/>
						<Node score="5.0">
							<SimplePredicate field="double(VATP016_N)" operator="lessOrEqual" value="0.24936156916855473"/>
							<Node score="6.0">
								<SimplePredicate field="double(VATP009_N)" operator="lessOrEqual" value="0.17530577116269924"/>
								<Node score="5.0">
									<SimplePredicate field="double(VATP017_N)" operator="lessOrEqual" value="0.15357663624353515"/>
									<Node score="5.0">
										<SimplePredicate field="double(VATP009_N)" operator="lessOrEqual" value="0.10393345778453873"/>
									</Node>
									<Node score="6.0">
										<SimplePredicate field="double(VATP017_N)" operator="lessOrEqual" value="0.06898321514892451"/>
										<Node score="7.0">
											<SimplePredicate field="double(VATP009_N)" operator="lessOrEqual" value="0.1624180865440207"/>
											<Node score="8.0">
												<SimplePredicate field="double(VATP009_N)" operator="lessOrEqual" value="0.15920092286028975"/>
											</Node>
										</Node>
									</Node>
								</Node>
								<Node score="4.0">
									<SimplePredicate field="double(VATP017_N)" operator="lessOrEqual" value="0.24648283835029589"/>
								</Node>
								<Node score="6.0">
									<SimplePredicate field="double(VATP009_N)" operator="lessOrEqual" value="0.1525919376308547"/>
								</Node>
							</Node>
							<Node score="4.0">
								<SimplePredicate field="double(VATP016_N)" operator="lessOrEqual" value="0.2330679334133989"/>
								<Node score="5.0">
									<SimplePredicate field="double(VATP009_N)" operator="lessOrEqual" value="0.17968893937062394"/>
								</Node>
							</Node>
							<Node score="5.0">
								<SimplePredicate field="double(VATP009_N)" operator="lessOrEqual" value="0.19170503913687983"/>
								<Node score="6.0">
									<SimplePredicate field="double(VATP016_N)" operator="lessOrEqual" value="0.2380130131819196"/>
								</Node>
							</Node>
						</Node>
						<Node score="5.0">
							<SimplePredicate field="double(VATP017_N)" operator="lessOrEqual" value="0.12479733884801475"/>
							<Node score="7.0">
								<SimplePredicate field="double(VATP016_N)" operator="lessOrEqual" value="0.5538418645240633"/>
								<Node score="7.0">
									<SimplePredicate field="double(VATP016_N)" operator="lessOrEqual" value="0.28582069368624724"/>
									<Node score="5.0">
										<SimplePredicate field="double(VATP009_N)" operator="lessOrEqual" value="0.1983891038760745"/>
									</Node>
									<Node score="7.0">
										<SimplePredicate field="double(VATP017_N)" operator="lessOrEqual" value="0.021548141896462706"/>
										<Node score="9.327020052042847">
											<SimplePredicate field="double(VATP016_N)" operator="lessOrEqual" value="0.26695004123550764"/>
										</Node>
									</Node>
									<Node score="8.0">
										<SimplePredicate field="double(VATP009_N)" operator="lessOrEqual" value="0.21825899772511667"/>
									</Node>
								</Node>
								<Node score="7.0">
									<SimplePredicate field="double(VATP017_N)" operator="lessOrEqual" value="0.04576881708116468"/>
									<Node score="11.27809078322522">
										<SimplePredicate field="double(VATP016_N)" operator="lessOrEqual" value="0.49993600291055423"/>
										<Node score="12.334385296159002">
											<SimplePredicate field="double(VATP009_N)" operator="lessOrEqual" value="0.32644892891022215"/>
										</Node>
									</Node>
								</Node>
								<Node score="10.023664553973461">
									<SimplePredicate field="double(VATP017_N)" operator="lessOrEqual" value="0.10080209167665266"/>
									<Node score="8.851655907139286">
										<SimplePredicate field="double(VATP016_N)" operator="lessOrEqual" value="0.36437667686640973"/>
									</Node>
								</Node>
								<Node score="8.0">
									<SimplePredicate field="double(VATP016_N)" operator="lessOrEqual" value="0.46129604375778144"/>
								</Node>
							</Node>
							<Node score="4.0">
								<SimplePredicate field="double(VATP009_N)" operator="lessOrEqual" value="0.4504045799172608"/>
							</Node>
						</Node>
						<Node score="5.0">
							<SimplePredicate field="double(VATP009_N)" operator="lessOrEqual" value="0.3076241042626997"/>
							<Node score="5.0">
								<SimplePredicate field="double(VATP009_N)" operator="lessOrEqual" value="0.2615965775480489"/>
								<Node score="7.0">
									<SimplePredicate field="double(VATP017_N)" operator="lessOrEqual" value="0.23192616338854954"/>
									<Node score="7.0">
										<SimplePredicate field="double(VATP016_N)" operator="lessOrEqual" value="0.27717365337984246"/>
									</Node>
								</Node>
							</Node>
							<Node score="6.0">
								<SimplePredicate field="double(VATP009_N)" operator="lessOrEqual" value="0.2875561486641951"/>
							</Node>
						</Node>
						<Node score="6.0">
							<SimplePredicate field="double(VATP017_N)" operator="lessOrEqual" value="0.19125235511029454"/>
							<Node score="5.0">
								<SimplePredicate field="double(VATP009_N)" operator="lessOrEqual" value="0.33896396469122747"/>
